-0.00900315481704	0.0091466044495	-0.00266692585344	0.00369426352549	
-0.00900796586044	0.00914903173199	-0.00267023240779	0.00370052177163	
-0.00901399377199	0.00915289431496	-0.00267027508249	0.00370216929555	
-0.00916354672858	0.00921664873502	-0.00262521576647	0.00376520313881	
-0.00918662096145	0.00921148065748	-0.00260890731858	0.00377909440194	
-0.00918900627553	0.00921065624074	-0.00260725883125	0.00378222217514	
-0.00919908548216	0.00922634189214	-0.00260356537532	0.00377362428	
-0.00921748272072	0.00922950627012	-0.00261999622014	0.0038007606678	
-0.00925482992623	0.00924351455266	-0.00261047867676	0.00380643780963	
-0.00925494784607	0.00924382920978	-0.00261000484251	0.00380644708299	
-0.00925209576379	0.00925061126309	-0.00261800484739	0.00380484207546	
-0.00925352511653	0.00925795297512	-0.00262494233924	0.00380659375089	
-0.00925261186355	0.0092621234281	-0.00263071777534	0.00380582329079	
-0.00925258376854	0.00926215607153	-0.00263072200658	0.00380580999792	
-0.00925754983266	0.00926099005498	-0.0026249134709	0.00380561730207	
-0.00925697208141	0.0092613746078	-0.0026258121368	0.00380556451731	
-0.00928007498307	0.00927437470314	-0.00260857984694	0.00381052262887	
-0.00930392577141	0.00927256838979	-0.00258199604774	0.00381959990939	
-0.00930267573882	0.00927320446341	-0.00258435372915	0.00381984538661	
-0.00931438095914	0.00930528626792	-0.00261235738211	0.0038403447676	
-0.00941105072184	0.0093625913153	-0.00259055249827	0.00387168834119	
-0.0094123507187	0.0093689793001	-0.00260246749328	0.0038725819999	
-0.00942267085479	0.00938030679498	-0.00259461613154	0.00386314303463	
-0.00943769072965	0.00938364579136	-0.00258342600807	0.00386205913543	
-0.0094375505944	0.00938371239439	-0.0025835519202	0.00386225348168	
-0.0094709503294	0.00939895747601	-0.00261948611094	0.0039033930153	
-0.00947603444726	0.00939617457989	-0.00261699241227	0.0039112299994	
-0.00947818524039	0.00939486708764	-0.00261700087631	0.00391141976706	
-0.00949838837035	0.00941598087687	-0.00261725223351	0.00390795985283	
-0.00953488714575	0.00944633290652	-0.00262706295086	0.00391771856268	
-0.00954631685457	0.00944601669266	-0.00262150594868	0.00392067895024	
-0.00957238495386	0.00944705332941	-0.00259746467347	0.00392467073866	
-0.00956909837903	0.00945378616727	-0.002611485368	0.00393019787658	
-0.00957926019365	0.00945968585018	-0.00260838070455	0.00393470856636	
-0.0095904054619	0.00947231179634	-0.00260917285796	0.0039342086468	
-0.00959421335655	0.00947205238439	-0.00260842689746	0.00393645823419	
-0.00967973417142	0.00951104494154	-0.00260231868721	0.0039723562358	
-0.00968396613655	0.0095138691138	-0.00259981795975	0.00397093256813	
-0.00968920337159	0.00951970692679	-0.00260507893068	0.00397575965564	
-0.00969839274011	0.00951946442914	-0.0026127766132	0.00399213112508	
-0.00971385852643	0.00954811413821	-0.00261228313044	0.00398922142027	
-0.00971385016465	0.00954848243804	-0.00261223754385	0.00398856305135	
-0.00971579320699	0.00954840666752	-0.00261071241115	0.00398767457271	
-0.00972439260319	0.00955262014488	-0.00259605846341	0.00397919618716	
-0.00972527267415	0.00955277695408	-0.00259897481851	0.00398087385245	
-0.0097386122489	0.00956340762804	-0.00259015991623	0.00397851725926	
-0.00973561884472	0.00958214415675	-0.0026064744182	0.00397874177041	
-0.00976127291798	0.00957715159911	-0.00259601506674	0.0039996185063	
-0.00982496109598	0.00961318583927	-0.00257309229285	0.00399196698612	
-0.00983351645515	0.00962496681364	-0.00257264942691	0.00398268982173	
-0.00984783669583	0.00964564157845	-0.00256407625453	0.00397253028289	
-0.00993751599732	0.00965905857863	-0.00251322621885	0.00400464082721	
-0.00995494514724	0.00969464644605	-0.00250985123351	0.0039764922708	
-0.0101348671177	0.00978486396716	-0.00245499358688	0.00398844862631	
-0.0101368716195	0.00978329545073	-0.00245464988362	0.00399354612556	
-0.0101477823739	0.00977559649095	-0.00245068348728	0.0040071812741	
-0.0101530702237	0.00978895084732	-0.00245484523507	0.00399822738457	
-0.0101547563796	0.00979177684191	-0.00245812962493	0.0039977147493	
-0.0101575382366	0.00979142671777	-0.00245688407528	0.00399746944006	
-0.0101576795833	0.00979760171503	-0.00246194690501	0.00399743578147	
-0.0101870045484	0.00980845496474	-0.00243897392065	0.00400223712456	
-0.0101988468282	0.00981596618428	-0.00244343868084	0.0040059060662	
-0.0102138479143	0.00981949084194	-0.00243604771053	0.00400575823526	
-0.0102128071981	0.00982191056429	-0.00243641096106	0.00400325198496	
-0.010227812902	0.00982311175232	-0.00243062929724	0.0040115505171	
-0.0102839863677	0.00985947206374	-0.00244857993691	0.00403643894609	
-0.0102991814768	0.00986817878922	-0.00244469563515	0.00402897274559	
-0.0103012937006	0.00987312317892	-0.00244226214613	0.00402708566832	
-0.0103014846779	0.00987284666452	-0.00244218826485	0.00402736001582	
-0.0103368973287	0.00988074611948	-0.00241587043847	0.00402559217332	
-0.0104457370646	0.00994086421597	-0.00237591619838	0.00404619883524	
-0.0104655691573	0.00994544225786	-0.00237056814497	0.00405593290936	
-0.0104777227601	0.00994808772493	-0.00237205287548	0.00406275087841	
-0.0104778669346	0.00995917074004	-0.0023758948063	0.00405954758932	
-0.0104761666165	0.00996096404056	-0.00238198144731	0.0040634495133	
-0.0104763677987	0.0099740303241	-0.00238608572389	0.0040621119605	
-0.0105435580365	0.0099878227764	-0.00236319207665	0.00409682636818	
-0.0105486275968	0.00998849371104	-0.00236503148694	0.00410029185112	
-0.0105475368703	0.00999036230613	-0.00236577200913	0.00409945360108	
-0.0105792842526	0.0100066323204	-0.00236133420433	0.00410718391718	
-0.0106429390598	0.0100126577461	-0.002358830807	0.00413467687843	
-0.0106447481856	0.0100134989594	-0.00235607070039	0.00413139332375	
-0.0106828678204	0.0100567702401	-0.00235416079236	0.0041287062901	
-0.0106825593695	0.0100568143137	-0.00235463995953	0.00412938107582	
-0.0106869537754	0.010057764902	-0.00234942504865	0.00412549320936	
-0.0106866834481	0.0100597986876	-0.00235085763405	0.004126413364	
-0.0106904410386	0.010070807972	-0.00236299765769	0.00412990878583	
-0.0107369671355	0.0100846105027	-0.00235220736773	0.00414780567019	
-0.0107378196189	0.0100834061866	-0.00235226876737	0.00414889529032	
-0.0107641547341	0.0101104679493	-0.00235958807236	0.00414580252926	
-0.0107810584028	0.0101123814786	-0.00235587465624	0.00415669222295	
-0.0107826125181	0.0101139980823	-0.00235340359754	0.00415653361203	
-0.010784910345	0.0101232933687	-0.00235845156035	0.00415692459909	
-0.0107816350672	0.0101331351137	-0.00236743249436	0.00415604131534	
-0.0107818397317	0.0101331204324	-0.00236700065466	0.00415580456952	
-0.0107844014043	0.0101485647648	-0.00236568747918	0.00414282410377	
-0.0107911808766	0.0101510988339	-0.00236199999855	0.00414495648364	
-0.0108099052002	0.0101557134743	-0.00236934544826	0.00415909247775	
-0.0108766095653	0.0101765216108	-0.00235957158442	0.00419684852628	
-0.0109045440419	0.0101884201826	-0.00234899791229	0.00419934215346	
-0.0109072912031	0.0101905037682	-0.00234330659598	0.00419457817111	
-0.0109149393586	0.0101980476758	-0.0023347026559	0.00419054128996	
-0.0109187924366	0.0102003075526	-0.00233756553243	0.0041919076281	
-0.0109189668272	0.0102001429848	-0.00233751343197	0.00419192871964	
-0.0109203697703	0.0102012874311	-0.00233620756825	0.00418993592834	
-0.0109223714799	0.010199995696	-0.00233430150388	0.00419121906792	
-0.0109221128221	0.0102130066169	-0.00234288793819	0.00418300714551	
-0.0109441774895	0.0102081221678	-0.00232816000675	0.00419109052681	
-0.0109608355888	0.0102293326705	-0.00231767544066	0.00418860046252	
-0.0109826610409	0.0102298543092	-0.00230685376396	0.00419201685968	
-0.0110358167438	0.0102399904194	-0.00227326567874	0.00419741304506	
-0.0110358203258	0.0102399839633	-0.00227326374601	0.00419742065619	
-0.0110393868492	0.0102386989574	-0.00227530674274	0.00420456928941	
-0.0110476301229	0.0102406638001	-0.00227442540837	0.00421329676939	
-0.0110853165258	0.010268866189	-0.00227053239254	0.00422273575817	
-0.0111243391572	0.0102862486066	-0.00225170395296	0.00420600501296	
-0.0111236923943	0.0102960228457	-0.00225728047967	0.00420247492011	
-0.0111189299927	0.010307917055	-0.00227000566526	0.00420174009815	
-0.0111254286738	0.0103072501597	-0.00226023793594	0.00420324179451	
-0.0111607509562	0.0103381937405	-0.00227356289993	0.00421825539943	
-0.0111780443274	0.0103472897937	-0.00226073261949	0.00422407922482	
-0.0112223063383	0.0103421662012	-0.0022458033582	0.00425830117808	
-0.0112222130952	0.0103422099105	-0.00224603482199	0.00425833536785	
-0.011229166717	0.0103474338456	-0.00224956961703	0.00425677964091	
-0.0112419467189	0.0103450503585	-0.00224209894204	0.00426070328567	
-0.011243906525	0.0103524181352	-0.00224549570408	0.0042613712743	
-0.0112432174021	0.0103534207992	-0.00224578713119	0.00426078727838	
-0.0113228613241	0.0103742634737	-0.00221094617092	0.00429372221965	
-0.0113270424133	0.0103844084381	-0.00222111673601	0.00429472366145	
-0.0113302700775	0.0103976529788	-0.00223685814447	0.00429174929123	
-0.0113311268628	0.010400603641	-0.00223563382347	0.00428754427558	
-0.0113315730635	0.0104012280945	-0.00223642082508	0.00428777415794	
-0.0113431430807	0.0104180467914	-0.00222259380081	0.00428281389124	
-0.0113592896557	0.0104332038535	-0.00220399292982	0.00426480055596	
-0.0113752205845	0.0104431563644	-0.00219126815527	0.00425779688731	
-0.0114218812078	0.0104435885281	-0.00219210014465	0.00429508792916	
-0.0114380692596	0.010448665539	-0.00218402577406	0.00430402997896	
-0.011442306314	0.0104466997089	-0.00218454152097	0.00430761033578	
-0.0114639238847	0.010443571955	-0.00218755893163	0.00432767202765	
-0.011618008456	0.0105543613829	-0.0021945756826	0.00436460561348	
-0.0117074882625	0.0106106811548	-0.00215534781851	0.00434661293924	
-0.0117538940557	0.0106402576109	-0.00219956318359	0.00440619722347	
-0.0117613553543	0.0106411298148	-0.00219685910987	0.00440255709472	
-0.0117806767505	0.0106428685371	-0.00218964387155	0.00441939519694	
-0.0118069379036	0.0106595775463	-0.00216977942206	0.00440954327388	
-0.0118196715994	0.0106580471981	-0.00216478528716	0.0044220300528	
-0.0118351346555	0.0106506927728	-0.00216476971424	0.00443025337318	
-0.0118501428738	0.0106780145077	-0.00218279968478	0.00442923335303	
-0.0118503216247	0.0106777693756	-0.00219013151653	0.00443559437332	
-0.0118617470987	0.0106768776023	-0.00218532955546	0.00444330902611	
-0.0118615166255	0.0106761074282	-0.00218782861174	0.00444578467551	
-0.0118781974317	0.0106861865946	-0.00220711899054	0.00446093566071	
-0.0118773660296	0.0106917722975	-0.00220848885165	0.00445860087625	
-0.0118783544545	0.0106911600151	-0.00220681999566	0.00445929192553	
-0.0118951311973	0.0106941102585	-0.00219300674671	0.00447478145731	
-0.0118999552404	0.0106996865947	-0.00219294608836	0.00447766537295	
-0.0120027926074	0.0107420538801	-0.00216157601459	0.00448990634074	
-0.012010489046	0.0107601540574	-0.00215265476974	0.00447284592447	
-0.0120698334798	0.010757046916	-0.002109582447	0.00447399350248	
-0.0120745055925	0.0107628387914	-0.00210959931584	0.00447304849084	
-0.0121368331185	0.0107894261041	-0.00209150109399	0.00448167905573	
-0.0121822377677	0.010822261769	-0.00210180411492	0.00450543803708	
-0.0121872593223	0.0108401253003	-0.00211482547331	0.00450552733047	
-0.0121853893454	0.0108482654191	-0.0021312683156	0.00451332778465	
-0.012195229926	0.0108489073751	-0.00212448629361	0.00451559622722	
-0.0122070594655	0.0108430700186	-0.00211936638687	0.0045260413649	
-0.0122187989212	0.0108368222912	-0.00211464701018	0.00453461986005	
-0.0122343169834	0.0108509593043	-0.00211601583928	0.00453417629746	
-0.0122939624318	0.0109061479756	-0.00214585221117	0.00455233546887	
-0.0122937849261	0.0109120232165	-0.00215040809299	0.00454957495935	
-0.0122997019423	0.0109104818603	-0.00214774596409	0.0045490670496	
-0.0123103786153	0.0109065146213	-0.00214847906395	0.00455885896858	
-0.0123497063237	0.0109286985724	-0.00216092507982	0.00460307001648	
-0.0123556322012	0.0109441360563	-0.00216748475683	0.00459886644438	
-0.0123966694409	0.0109287054302	-0.00214170089864	0.00462613062076	
-0.0124065156864	0.0109436941215	-0.00215332289347	0.00462487429395	
-0.0124553308409	0.0109729569587	-0.00213877878808	0.00463680686221	
-0.0124628748848	0.0109785204671	-0.0021440077877	0.00465211375499	
-0.0124641597559	0.0109860157281	-0.00214257277522	0.00465046004167	
-0.0124682861721	0.0109873819236	-0.00214057738581	0.00464948329329	
-0.0125032939092	0.0109905900962	-0.00215022634292	0.00468675056866	
-0.0125250849315	0.0110085744636	-0.00214772132841	0.0047033785322	
-0.0126007516405	0.0110518799633	-0.00210935746372	0.00470451031006	
-0.0126011259062	0.0110520866816	-0.00210920705879	0.0047043236142	
-0.0126464786375	0.011069500886	-0.00208257494992	0.00472810556613	
-0.0126472736386	0.0110700873573	-0.00208267950014	0.00472739155084	
-0.0126958169946	0.0110942786658	-0.0020823075691	0.00475016152731	
-0.0126949029291	0.0110966407275	-0.0020932687508	0.00476019891834	
-0.0127786515199	0.0111294896877	-0.00209885836354	0.00479732517841	
-0.0127893873286	0.0111327661778	-0.00209491515573	0.00479597539648	
-0.012794640142	0.0111360768561	-0.0021014902162	0.00480034888519	
-0.0128579109059	0.0111855615018	-0.00209398297196	0.00480630325439	
-0.01287435748	0.011193859219	-0.00209161346752	0.00481316507734	
-0.0128761008379	0.0111994248631	-0.00208812584704	0.00480787003265	
-0.0129252383083	0.0112108137122	-0.00208103655681	0.00483765676959	
-0.0129252117113	0.011210749618	-0.00208118762994	0.0048378164705	
-0.0129388787568	0.0112265448707	-0.00207385751283	0.00483359281923	
-0.0129444868559	0.0112442183707	-0.00207372414188	0.00482519834931	
-0.0129625184174	0.0112402908801	-0.00206623631714	0.00483446099338	
-0.012993426906	0.011293157771	-0.00207589867923	0.00480860593054	
-0.0130878148443	0.0113276985626	-0.00207425758795	0.00485026521572	
-0.0131375664969	0.0113703433919	-0.00202853836977	0.00482742301773	
-0.0132822194845	0.0113954534257	-0.00195276912145	0.00486681889997	
-0.0132929435726	0.0114053235546	-0.00195332009627	0.00486774843762	
-0.0133017966179	0.0114211461231	-0.00197090828945	0.00487414544697	
-0.0133019022418	0.0114212801098	-0.00197079887463	0.00487386090944	
-0.0133017312985	0.0114214141655	-0.00197102178801	0.00487419012059	
-0.0133236901074	0.0114657937106	-0.00198266507786	0.00487717798124	
-0.0133237012772	0.0114657885251	-0.00198262369606	0.00487717676275	
-0.0133243875772	0.0114661259696	-0.00198551842687	0.00487864190904	
-0.0133975877726	0.0114908366297	-0.0019397073723	0.00487196376935	
-0.0134390858486	0.0115061232001	-0.00193301461534	0.0048859459416	
-0.0134803124179	0.0115178896051	-0.0018999042442	0.00487549968561	
-0.0134837439864	0.0115262247569	-0.0018973277161	0.00487874206181	
-0.0134944857906	0.0115381182179	-0.00190536676424	0.00487174242626	
-0.0135845472331	0.0115529934307	-0.00189006564482	0.00494967396244	
-0.013582731074	0.0115732211373	-0.00190521406358	0.00494110986243	
-0.0136405701344	0.0116212892244	-0.00190779503309	0.0049537569306	
-0.0136674531529	0.0116351975195	-0.00189946087647	0.00496493568446	
-0.0137296145395	0.0117028603565	-0.00190542300122	0.00497773367184	
-0.0137582196897	0.0117429537211	-0.00189618987059	0.0049698251707	
-0.0137685721738	0.0117471871831	-0.00189670425432	0.00497760927123	
-0.0137718970972	0.01174729013	-0.00189758788859	0.00498229317949	
-0.0137721733408	0.0117506849603	-0.00189800396455	0.00498128629673	
-0.0138105354083	0.0117838089813	-0.00187693973672	0.00496497678128	
-0.0139258173116	0.0118186774797	-0.00183751301324	0.00501824980149	
-0.0139548634114	0.0118570971086	-0.00183654250757	0.00502280855682	
-0.0140560972819	0.0118917793933	-0.00180160861326	0.00507130837942	
-0.0140699728337	0.0118985033861	-0.00179962535972	0.00507659968918	
-0.0140744653572	0.0118937984321	-0.00179663022027	0.00508345656407	
-0.0141077164407	0.0119002645368	-0.00179870086303	0.00510240935909	
-0.0141104473534	0.0119017336208	-0.00179748191683	0.00510216384902	
-0.0141469915267	0.0119136848413	-0.00177292746841	0.00508670776166	
-0.0141485089909	0.0119134464538	-0.00177789500703	0.00509134339762	
-0.0141830067555	0.0119571416357	-0.00179968491949	0.00510408851686	
-0.014185372324	0.0119573513778	-0.00179701242838	0.00510218204988	
-0.0141837570036	0.0119641138995	-0.00180484443482	0.00510255675664	
-0.0142130558348	0.0119600071503	-0.00178166571014	0.00511302668424	
-0.0142189508958	0.0119638414527	-0.00177230370457	0.00510476864017	
-0.0142252869698	0.0119886110771	-0.00179965763066	0.00512082653488	
-0.0142418111122	0.0120154359636	-0.00179060764434	0.00509803037343	
-0.0142451058552	0.0120121760087	-0.00179665000267	0.0051089554916	
-0.0142710233167	0.0120120352582	-0.0017988557109	0.00514352326821	
-0.0142809175584	0.0120388824151	-0.00180583184496	0.00514290323751	
-0.0143353317199	0.0120707651447	-0.00183618424156	0.00519725211656	
-0.0143351194033	0.0120712850923	-0.00183550139036	0.00519730685945	
-0.0143516723642	0.0120835567451	-0.00183878132163	0.00519626760177	
-0.0143762965372	0.012091476765	-0.00183591313555	0.00521324583664	
-0.0144401150131	0.0121156645533	-0.00180212085335	0.00522972008544	
-0.0144715183181	0.0121236778799	-0.00177721167502	0.00523813185788	
-0.0144853405212	0.0121224113945	-0.00176586632272	0.00524365519205	
-0.0144854493623	0.0121221629697	-0.00176605101881	0.00524395672842	
-0.0145833546535	0.0121214202539	-0.00173406075042	0.00530615755261	
-0.014591834161	0.0121305344106	-0.0017224231134	0.00530143604457	
-0.014614636825	0.0121307542521	-0.00170955949157	0.00531835780388	
-0.0146140688234	0.0121321309569	-0.00171238673784	0.00531897687914	
-0.0146270039589	0.0121292184923	-0.00171501583156	0.00533048784181	
-0.0146341123024	0.0121444243644	-0.00171305895361	0.00531668310191	
-0.0146617001289	0.0121439978563	-0.00170014232045	0.0053443609562	
-0.0146661887959	0.0121492416813	-0.00169914335698	0.00534000464578	
-0.0146640194464	0.0121570283859	-0.00170469913935	0.0053376517448	
-0.0146710254406	0.0121576057593	-0.00169335259823	0.00533917783174	
-0.0146735616013	0.0121612763219	-0.00169303898117	0.00533730450131	
-0.014757192962	0.0121871966528	-0.00165426010811	0.00537212805864	
-0.0147841931487	0.0121886021519	-0.001653195006	0.00539433196797	
-0.0147879942719	0.0121867212458	-0.00165345154201	0.00539829492345	
-0.0147874751331	0.0121873481521	-0.00165424034977	0.00539854374776	
-0.014877070484	0.0122369352658	-0.00165901573867	0.00543425899721	
-0.0148772501234	0.0122370453282	-0.00165835926497	0.00543375353904	
-0.0148810601055	0.012240788379	-0.00166049745194	0.0054360801466	
-0.0149428640725	0.0122809107421	-0.0016435968457	0.0054384239886	
-0.0149647376998	0.012303226962	-0.0016509457627	0.00543390774572	
-0.0150113727938	0.0123820467926	-0.00165574807266	0.0054056667924	
-0.0150109275942	0.01238384721	-0.00165845135436	0.00540933458437	
-0.0150100583208	0.0123900857891	-0.00166053545795	0.00540498314121	
-0.0150104299265	0.0123902022591	-0.00166103529484	0.00540555335269	
-0.0150128315963	0.0123895797034	-0.00166835619377	0.00541213915651	
-0.0150198305336	0.0123939645656	-0.00166643454066	0.00540544341029	
-0.0150325429547	0.0124149952169	-0.00166570980289	0.00539184377439	
-0.0150806868691	0.0124358939101	-0.00163909652089	0.00539658147645	
-0.0151021107754	0.0124608447235	-0.00162898146194	0.0054020769618	
-0.0151327820124	0.0124736818857	-0.00160970919674	0.00540461980357	
-0.0151612675376	0.0124835357288	-0.00160856145997	0.00539728910694	
-0.0151790352705	0.0124951986997	-0.00161853326359	0.00540781618111	
-0.0152037315803	0.0125003758621	-0.00160280114614	0.00541266423964	
-0.0152961102752	0.0125429101089	-0.00155305915791	0.00542220119985	
-0.0152970078243	0.0125449022756	-0.0015511216169	0.00541814729208	
-0.0153119530096	0.0125479551055	-0.00153429553616	0.0054098451704	
-0.0153904977125	0.0125923149737	-0.00150373525131	0.00543589490475	
-0.0154253655739	0.0126199476369	-0.00150760301615	0.00547153892568	
-0.0154612699755	0.0126167375291	-0.00150699829844	0.00548644195209	
-0.0155368310611	0.0126772129331	-0.0014578010622	0.00549271816294	
-0.0156070001588	0.0127011514422	-0.00145737529993	0.00553147939044	
-0.0158083057782	0.0127621129939	-0.00140733882014	0.00563682958019	
-0.0158082722035	0.012762155967	-0.00140742692051	0.00563681812893	
-0.0158194137876	0.0127631904524	-0.00139309396404	0.00563412068734	
-0.0158202295418	0.0127752370141	-0.00140512589936	0.00563193339144	
-0.0158548573587	0.0127770112928	-0.00137214433318	0.00564648965273	
-0.0159390412009	0.0128032960284	-0.00131001744364	0.00564333668461	
-0.0159425429606	0.0128033431946	-0.00130909098835	0.0056476329658	
-0.0159473991694	0.0128131104213	-0.00130813452756	0.00565204044997	
-0.01602373188	0.0128164142904	-0.00129973437056	0.00568607434391	
-0.0160373304253	0.0128250505222	-0.00128827552851	0.0056810189408	
-0.0161532023926	0.0128710901429	-0.00127479824702	0.00576546220975	
-0.0161538826933	0.0128695824854	-0.00127448739641	0.00576718951035	
-0.0161702270702	0.0128822837577	-0.00127072110876	0.00575815265747	
-0.016204541275	0.012900958776	-0.00128247052695	0.00577832551052	
-0.0162180836026	0.0128969783537	-0.00128201880875	0.0057975709227	
-0.0162384750117	0.0128881885462	-0.00125946754416	0.0058008937829	
-0.0162400192491	0.0128864656883	-0.00125880509649	0.00580428100285	
-0.0163038923224	0.0129640988068	-0.00128970088394	0.00582428386343	
-0.0163129596927	0.012968040888	-0.00129993825915	0.00583042901166	
-0.0163416178792	0.0129710515516	-0.00127434767664	0.00584816597085	
-0.0164310787201	0.0130055441343	-0.00123064817661	0.00586532107699	
-0.0164442374136	0.0129979497452	-0.00123231802481	0.00588243342841	
-0.0164473897133	0.0129977078922	-0.00123401764961	0.00588749341967	
-0.0164526531228	0.0129964904988	-0.00122698666153	0.00588853638107	
-0.0164533843968	0.0129964448621	-0.00122743134746	0.00588886083454	
-0.0164548168144	0.0129989437279	-0.00122465893549	0.00588279536998	
-0.0166035478045	0.0130279137088	-0.0012061385274	0.00594939319783	
-0.0166181957592	0.0130460608014	-0.00121368210992	0.00595290656976	
-0.0166199492541	0.0130469680721	-0.00120985353066	0.00594990312702	
-0.0166200699958	0.013046889942	-0.00120970741833	0.00594978246922	
-0.0166271156019	0.0130487063394	-0.00120818498627	0.00595865718088	
-0.0166378883199	0.0130504666392	-0.00119843558694	0.00595828573906	
-0.0167359880383	0.0131333833814	-0.00118270818005	0.00596751713224	
-0.0167363052645	0.0131353064541	-0.00118632476867	0.00596978865197	
-0.0167404162479	0.01313721231	-0.00118955492117	0.00597608278475	
-0.0167732483755	0.0131436394011	-0.00119607282904	0.00601164323325	
-0.0167902593419	0.0131475976727	-0.0012086436191	0.00602314349994	
-0.0168046198618	0.0131481746607	-0.00119398794853	0.00601363524722	
-0.0168100364809	0.0131499572572	-0.00119196142294	0.00601250446823	
-0.0169768407929	0.0132665148871	-0.00122653943239	0.00605093803541	
-0.0169777829683	0.0132696338813	-0.00123315479906	0.00605515927381	
-0.0170138747623	0.0133254278955	-0.00127993731995	0.00610622295901	
-0.0170141458047	0.0133257796064	-0.00127897059843	0.00610605157374	
-0.0170210628677	0.013334103293	-0.0012847606038	0.00611987894258	
-0.0170298333804	0.0133336176952	-0.00127915126023	0.00612828710814	
-0.0170774899854	0.0133485347413	-0.00128934818463	0.00616096981877	
-0.0170865018414	0.013346718899	-0.00127346696671	0.00615661238167	
-0.0171299623996	0.0134197847797	-0.00127754041508	0.00615160927222	
-0.0171315356046	0.0134345594109	-0.00128780643139	0.00615866618474	
-0.0171312350785	0.0134403910382	-0.00129517060558	0.00616209685642	
-0.0171643903599	0.0134684985449	-0.00132163439634	0.00618577385215	
-0.0171671251804	0.0134704472243	-0.00132464288714	0.00619077178189	
-0.0171672846494	0.0134703014036	-0.00132421749976	0.00619075104959	
-0.017169196178	0.0134672057398	-0.00132702861692	0.00619774322458	
-0.017170624446	0.0134666900637	-0.00132602275449	0.00619690673216	
-0.0172059873833	0.0134705367667	-0.00132384662158	0.00621051642188	
-0.0172804418682	0.0134820931286	-0.00132193407725	0.00628049685628	
-0.0172947620005	0.0134845758122	-0.00133492577405	0.00629639377178	
-0.0173271271812	0.013515871135	-0.00133625934722	0.00629817027273	
-0.0173270787507	0.0135171646997	-0.00133563795692	0.00629642811656	
-0.0173391820066	0.0135220169286	-0.00133766320527	0.0063076174822	
-0.0173428559217	0.0135198673659	-0.00133238594302	0.0063087097886	
-0.0173724991942	0.0135296079853	-0.00132856816373	0.00632595764056	
-0.0173728006603	0.013533040324	-0.00133591061374	0.00634094829463	
-0.0173998482027	0.0135471206796	-0.00131099186865	0.00633841751932	
-0.0174534934283	0.0135493976203	-0.00126440991926	0.00634370711284	
-0.0174545023758	0.0135490969918	-0.0012626413372	0.00634388385511	
-0.0175743923786	0.0135627745169	-0.00122160487421	0.00642866558474	
-0.0175946382618	0.0135715974102	-0.00121862422293	0.00642471382765	
-0.0176060789262	0.013572430641	-0.00121435177993	0.00642994527636	
-0.0176055939203	0.0135768098346	-0.00122445970491	0.00643413344073	
-0.0176305381055	0.0135794861442	-0.00123288621023	0.00645236572314	
-0.017671219743	0.0135942458461	-0.00123897404611	0.00648456874188	
-0.0176752389365	0.013609218692	-0.00125048535939	0.00647200312629	
-0.0176934915285	0.0136155963091	-0.0012453049613	0.00649267223302	
-0.0176937004254	0.0136192034613	-0.00125674412981	0.00649429398918	
-0.0176927343043	0.0136206491513	-0.00125807732848	0.00649620019121	
-0.0177106843538	0.013642248821	-0.00125043563451	0.00648905245697	
-0.0177134260475	0.0136398517897	-0.00124971549339	0.0064955149514	
-0.0177292049365	0.0136500666318	-0.00125699553383	0.00650437875707	
-0.0177320484339	0.0136623237024	-0.00126570221561	0.0065024685703	
-0.0177434390835	0.0136676621746	-0.00127057110078	0.00650758169517	
-0.0177815911483	0.0136638227734	-0.00125006985202	0.0065172176282	
-0.0178171386173	0.0136945290482	-0.00123225217464	0.0065060135068	
-0.0178595832274	0.0137047140357	-0.00120952285606	0.0065088436084	
-0.0178622300941	0.013711757716	-0.0012202616804	0.00651927239448	
-0.017870108087	0.0137158990015	-0.00120693646854	0.00651370140636	
-0.0178708096319	0.0137156506922	-0.00120677450759	0.00651412748692	
-0.0180746672059	0.0138045555128	-0.00113733272582	0.00663815898995	
-0.0181051568452	0.0138134789052	-0.00113875786614	0.00665732234826	
-0.0181241734935	0.013838643567	-0.00114378239919	0.00666823714884	
-0.0181247064784	0.0138378571025	-0.0011453137258	0.0066703518877	
-0.0182318689942	0.013896137939	-0.00116205369039	0.00672953565251	
-0.0182441837281	0.0138955546983	-0.00115598697196	0.00672559021095	
-0.0182747471278	0.0139020153985	-0.00113565153415	0.00674344054057	
-0.0183054666462	0.0139172201928	-0.00111701803345	0.00673930460103	
-0.0183053467313	0.0139251481407	-0.0011184397333	0.00673436781501	
-0.0183552854521	0.0139585906434	-0.00114263182156	0.00673787298992	
-0.0183722855832	0.0139604635296	-0.00112751526715	0.00675065528982	
-0.0184124584794	0.013971765983	-0.0011066276662	0.00675815630549	
-0.0186462245831	0.0141381895811	-0.00109900857409	0.00681553509862	
-0.0186493223056	0.0141354426657	-0.00109752496607	0.00682145990444	
-0.0186738488341	0.0141531209481	-0.00110918699663	0.00683343037826	
-0.0186777631054	0.0141544482282	-0.00111172849331	0.00683763773196	
-0.0186896485801	0.0141972954242	-0.00111335705592	0.00680634082813	
-0.0187070941523	0.0142470631075	-0.00111468992375	0.00679097189793	
-0.0187657217127	0.0142636140249	-0.00107978192898	0.00679392425585	
-0.0187644372651	0.0142677274196	-0.00108162598985	0.00679029176947	
-0.0187917672404	0.0142597274344	-0.00104816522041	0.00679120221342	
-0.0187994503175	0.0142762307926	-0.0010484296509	0.00679580930366	
-0.0188092544653	0.0142685856329	-0.00104215279676	0.00680330112039	
-0.0188283930073	0.0142795870052	-0.00104732783805	0.00679273759721	
-0.018890356708	0.014282119858	-0.0010175254278	0.00686089636824	
-0.0189418445566	0.0142951724234	-0.00101190751934	0.00690310437305	
-0.018994637683	0.0143400208778	-0.00100425577627	0.0069059660857	
-0.0189930186033	0.0143564771564	-0.00100856204866	0.00689585593314	
-0.0190302272213	0.0143933717231	-0.000988294388217	0.00689320377426	
-0.019042768507	0.0144192581058	-0.000985750991731	0.00689420932751	
-0.0192431388618	0.0144668474024	-0.000912425442658	0.00693619630881	
-0.0192675989117	0.0144995737714	-0.000897609865154	0.00692175641343	
-0.0192891204025	0.0145200777539	-0.000907303721856	0.00694030207753	
-0.0192981725095	0.0145188545733	-0.000904133819764	0.00694380458354	
-0.0193835492805	0.0145260190816	-0.000863875373478	0.00698428395967	
-0.0193841575578	0.0145264196735	-0.000862537112816	0.00698329673339	
-0.0193934685909	0.0145347815995	-0.00086507762458	0.00699232468279	
-0.0194051409365	0.014531364317	-0.000856948604366	0.0069999140458	
-0.0194423585998	0.0145251132795	-0.000837150688425	0.0070144920087	
-0.0194957078854	0.0145234003866	-0.000787939337371	0.00700810687251	
-0.0194962718412	0.0145379881336	-0.000790796415874	0.00700777855642	
-0.0194964830712	0.0145428464615	-0.000799274792744	0.0070146457639	
-0.0195046059067	0.0145428088614	-0.000784236896462	0.00702429776256	
-0.0195099452744	0.0145646974393	-0.000786278400567	0.00701386397601	
-0.0195606526572	0.0145558929726	-0.00075781799274	0.00703880631062	
-0.0196024304705	0.0145483038175	-0.000725013950323	0.00705814124248	
-0.0196021987561	0.0145479980889	-0.000725576270254	0.00705995395397	
-0.0196255389169	0.0145644074519	-0.000749675168575	0.00707903736832	
-0.0196482854176	0.014592766378	-0.000745008820581	0.00707108736062	
-0.0197663129794	0.014587312767	-0.000725771627574	0.00718251804824	
-0.0198650618089	0.0145884483414	-0.000641561557709	0.00720772820014	
-0.0199431377945	0.0146372621163	-0.000639301424741	0.00720504637857	
-0.0199439865136	0.0146408873311	-0.000643875212725	0.00720588957479	
-0.0199435202975	0.0146410212705	-0.000647081665613	0.00720814882169	
-0.0199631545148	0.0146388013289	-0.00063521676061	0.00721504995826	
-0.0199632316883	0.0146398142505	-0.000634810277046	0.00721325159552	
-0.0199824608103	0.0146421620572	-0.000621052095968	0.00721792978076	
-0.0199804145299	0.0146455817856	-0.000626088087802	0.00721763765522	
-0.0199821321072	0.0146441374416	-0.0006244575676	0.00721854808168	
-0.0199874854315	0.0146453240275	-0.000623551017803	0.00722604650529	
-0.0200067130567	0.0146791073209	-0.000631143514416	0.00720618821717	
-0.0200054548554	0.0146811193177	-0.00063428315961	0.00720605292319	
-0.0200161911448	0.0146736032856	-0.000626952392367	0.00721592394239	
-0.0201897899233	0.0146722560752	-0.000583286400045	0.00735420478528	
-0.0203761391571	0.014721953981	-0.000508183343351	0.00739979063816	
-0.0204205129994	0.0147363255081	-0.000495523562452	0.00740477181556	
-0.0204404219331	0.0147509659133	-0.00050285496375	0.00741830841832	
-0.0204445149777	0.0147522763333	-0.000512902581001	0.00742970433627	
-0.0204498166571	0.0147539096016	-0.000506958799635	0.00742562971313	
-0.0204563030284	0.0147590234806	-0.0005097308601	0.00743010388114	
-0.0204630038168	0.0147560942543	-0.000487827161515	0.0074295212837	
-0.0207784717988	0.0148244882928	-0.000384780477662	0.00752606370101	
-0.0207840579319	0.0148297033604	-0.000382645806737	0.00753345914392	
-0.0208913027058	0.0149006838708	-0.000375871180919	0.00756794202697	
-0.0209314737591	0.0149201356257	-0.000378509011401	0.00760058313591	
-0.0210085758598	0.01494117217	-0.000331668170855	0.00762772984784	
-0.0210139257336	0.0149504488545	-0.000340579557857	0.00764383020991	
-0.0210761625205	0.0149493311153	-0.000333301785705	0.00767102647666	
-0.0210781013967	0.014952183922	-0.000329996087502	0.00766524886198	
-0.0211150433478	0.0149650322615	-0.000300639695812	0.0076634015461	
-0.021231755169	0.0149823028865	-0.000251765612786	0.00772628144618	
-0.0212304428148	0.0149873276161	-0.000253629353317	0.00772223787746	
-0.0212324907618	0.0149879195368	-0.000253302441032	0.00772616639331	
-0.021241334559	0.014985149791	-0.000259952150862	0.00774756346627	
-0.0213851174903	0.0150176315136	-0.000157405340255	0.00775264549884	
-0.0215581427317	0.0150887776943	-0.00014555890394	0.00783979705086	
-0.0216183003414	0.0151295209525	-0.000147917976626	0.00784699927359	
-0.0216189705557	0.015127930185	-0.000148072082503	0.00784892360629	
-0.0216327404141	0.0151263048576	-0.000134234225335	0.00785644964062	
-0.0216558988667	0.01515672884	-0.000132913374595	0.0078499847581	
-0.0216862595542	0.0151526477963	-0.00012485696604	0.00788335599651	
-0.021695310659	0.0151527246218	-0.000112789034784	0.00789182400977	
-0.0217472824461	0.0151649890199	-8.81564291985e-05	0.00792368576417	
-0.0217465152719	0.0151657065694	-9.02149240588e-05	0.00792488497859	
-0.0218064292275	0.0152017877595	-0.000104069035967	0.00799680961746	
-0.0218032644345	0.01526346802	-0.000155423785199	0.00798793540866	
-0.0218690020029	0.0152964911722	-0.000149082388136	0.00803098812149	
-0.021900089447	0.0153355728936	-0.000141247035594	0.00802722951129	
-0.0219154201507	0.01534167903	-0.000122605950682	0.00802161589448	
-0.0219284570103	0.0153654210155	-0.000136915397592	0.0080320068235	
-0.0220206053338	0.0153747975457	-0.000104178309057	0.00805855513229	
-0.0220214765767	0.0153743829566	-0.000125377926706	0.00808060382221	
-0.0220296524766	0.0154059040116	-0.000118794563929	0.00805886982222	
-0.0220349761562	0.0154107136072	-0.000119430358533	0.00806724641735	
-0.0220343573306	0.0154105662963	-0.000119957225941	0.00807005107657	
-0.0220375981499	0.0154108800643	-0.00011916262238	0.00808003938921	
-0.0221004348874	0.0154320931959	-0.000128015309759	0.0081213139914	
-0.022113716427	0.0154363576525	-0.000116820030247	0.00812395288416	
-0.0222092777641	0.015446850639	-5.36918177881e-05	0.0081505734206	
-0.0222122302308	0.0154602434861	-5.28796121372e-05	0.00814464799131	
-0.0222291669969	0.0154635580663	-6.49565206369e-05	0.00817765972365	
-0.022230103934	0.0154630891886	-6.38126258226e-05	0.00817810919801	
-0.0222392210862	0.0154714729723	-6.42429344772e-05	0.00818831209923	
-0.0222534732189	0.0154794223528	-6.17263017508e-05	0.0081780588965	
-0.0223240100646	0.0154823800235	-6.87468229836e-05	0.00823177550154	
-0.0223368406491	0.0154856362774	-6.71412555471e-05	0.00823725570133	
-0.0223384879404	0.0154850882068	-6.37961272533e-05	0.00823532463951	
-0.0223679118003	0.0155277704879	-8.0560748762e-05	0.00822727936708	
-0.022671102288	0.015584507179	-1.72625567627e-05	0.00839042403474	
-0.0227142905587	0.0156124591366	-7.2699868122e-06	0.00840488843688	
-0.0227143794496	0.0156146870505	-6.91854909561e-06	0.00840348824049	
-0.0227418379393	0.0156604428705	-1.37755128217e-05	0.00838085646442	
-0.0227476427626	0.0156624473443	-1.84632765439e-05	0.00837948134927	
-0.0227483126615	0.0156611799722	-1.72777849931e-05	0.00838076607482	
-0.0227526327878	0.0156918512031	-3.84549246607e-05	0.00838652446579	
-0.0228484868528	0.0157060040207	2.36022595837e-06	0.0084313889463	
-0.0228627842381	0.0157296458558	-3.67253852707e-05	0.00845059102812	
-0.0228640850839	0.0157287168075	-3.58969910003e-05	0.00845262789118	
-0.0229868768275	0.0157849921412	4.83140736384e-05	0.00843447845979	
-0.0230119213734	0.0158160776105	2.17597475371e-05	0.00843522122247	
-0.0230565115611	0.0158314266521	7.22813081628e-05	0.00842509745605	
-0.023170220506	0.0158735737851	0.000112599113815	0.00842601349977	
-0.023321694182	0.0159273313452	0.000116792502273	0.00842681458226	
-0.0233936185253	0.0159754252343	0.000150275488132	0.00841333792273	
-0.0233943152374	0.0159729040564	0.000145063148556	0.00842249538672	
-0.0234161719516	0.0159861940291	0.00015753083948	0.00842683803349	
-0.0234843462736	0.0160325915931	0.000220844251383	0.00839052882052	
-0.0234887058325	0.0160340732568	0.00023102244208	0.0083883010416	
-0.0235676217757	0.0160239555125	0.000280419141492	0.00840010937257	
-0.0236620661734	0.0160927711131	0.000263394938318	0.00843766257731	
-0.023696032818	0.0161515443874	0.00023390512044	0.00843917347954	
-0.0237135447241	0.0161392267733	0.000248661107274	0.00845231901976	
-0.0237228004519	0.0161465898025	0.000254503776215	0.00845088428599	
-0.0237325663583	0.0161674822916	0.000251109531558	0.00845811791849	
-0.0237821808337	0.0162049195377	0.000267754168139	0.00845927430797	
-0.0238055809497	0.0162034664772	0.000262922220825	0.00849212249316	
-0.0238117592035	0.0162005013131	0.000259584135242	0.00849884520622	
-0.0238240478749	0.0162114252099	0.000264031938032	0.00849757931004	
-0.0238234050206	0.0162173728597	0.000254764861979	0.00849655868974	
-0.0238315422288	0.0162249459682	0.000248899044852	0.00849166180179	
-0.0240206173656	0.0162291227722	0.000414657084897	0.0085401341246	
-0.0240790683921	0.0162550548372	0.000448900313652	0.00852848999371	
-0.024089622315	0.0162538926694	0.000452376181058	0.00853826530802	
-0.0244646893364	0.0164455096802	0.000589024332853	0.00862571336339	
-0.0245160298391	0.0164595259203	0.000594467592913	0.00865745395728	
-0.0245216198882	0.0164708961772	0.000579901942962	0.00865278700472	
-0.0245318278005	0.0164716394656	0.000577026270359	0.00865584720086	
-0.0245315770143	0.0164712281402	0.000576008672189	0.00865786061407	
-0.0246010770575	0.0164722691577	0.000599967032373	0.00867720831529	
-0.0246098029051	0.0164865217792	0.000585924551768	0.00868103906377	
-0.0246105677019	0.016491437567	0.000567612323897	0.00869452922003	
-0.0247321574727	0.016544967839	0.000621467315215	0.00868632506036	
-0.0247325273595	0.016544430929	0.00062152693636	0.00868655334465	
-0.0247401261713	0.0165500087497	0.00061487389066	0.00869038508378	
-0.0248439610755	0.0165728410281	0.000708145490266	0.00870126759526	
-0.0248559687735	0.016579955787	0.000721186227495	0.00869776804575	
-0.0248674378697	0.0165827006935	0.000714421844374	0.00870783686211	
-0.0248673355025	0.0165852615871	0.000713995244481	0.00870906911899	
-0.0248680647299	0.0165856160764	0.000708606612677	0.00871810486425	
-0.0248681677127	0.01658550778	0.000709004224381	0.00871812672122	
-0.0250775715029	0.0167200101003	0.000740863481914	0.00875675461382	
-0.0250894022994	0.0167501092097	0.000691476079363	0.0088158502553	
-0.0251286419522	0.0167865114768	0.000667784370947	0.00885577586693	
-0.0251308166248	0.016787890017	0.000668333945658	0.0088575724387	
-0.0251343445358	0.0167819545721	0.000669248824129	0.00886865022944	
-0.0251823174138	0.0167517231693	0.000695027296762	0.0089089900257	
-0.0252215609883	0.0167641482056	0.000735751810496	0.00888905320619	
-0.0253044538038	0.0168280833954	0.000727248763877	0.00895192616873	
-0.0253049972116	0.0168282402959	0.000727445217363	0.00895433836982	
-0.0253295835815	0.0168219645621	0.000746224740183	0.00896742247393	
-0.02534143428	0.016824637359	0.000753290556031	0.00896332486811	
-0.0254345825028	0.0168124250571	0.000801907335286	0.0089881000239	
-0.0255464624247	0.0168832641582	0.000771788263532	0.00908364087665	
-0.0255506231719	0.0168883191118	0.00076225279249	0.0091037916021	
-0.0255915722237	0.0169107342765	0.000742155941132	0.00914556414916	
-0.0256267636195	0.0168992925276	0.000753313493197	0.00918149521772	
-0.0256413390782	0.0169036150537	0.000757191857166	0.00918253501076	
-0.0256452557945	0.016909023497	0.000748053396162	0.00918556132294	
-0.0256482211492	0.0169073328366	0.000753704878645	0.00918311031484	
-0.0257549623899	0.0169145218724	0.00074131984068	0.0092607678886	
-0.0257594650931	0.0169120450887	0.000742102257814	0.00926314725463	
-0.025756966696	0.0169152711366	0.000730770464036	0.00927456667036	
-0.0260926401805	0.0170735744164	0.00087326665224	0.0093750367786	
-0.0261267495882	0.017100028764	0.000857902561338	0.00939889207929	
-0.0261364335868	0.0171008932859	0.000860817211903	0.00939778933126	
-0.0262356238778	0.0171246323823	0.000922590061929	0.00943023258411	
-0.026240813513	0.0171329841757	0.00092344387591	0.00943607034389	
-0.0262407492383	0.0171331592278	0.000923454407383	0.00943593768675	
-0.0263140321198	0.0171059161272	0.000936204337304	0.00952642609148	
-0.0263242292902	0.0170988211961	0.000944176971046	0.00953006242127	
-0.0263243983349	0.017101875595	0.00094658919946	0.00952694455177	
-0.0264345549375	0.0172039973374	0.000932100758344	0.00959976144065	
-0.0264378291781	0.0172129192283	0.000932067274903	0.00960143445926	
-0.026496743122	0.0172240699683	0.00096766430413	0.00960611720167	
-0.0265363874472	0.0172205967692	0.00101246470536	0.00963298863629	
-0.0265879752189	0.0171945150187	0.00102785698392	0.00966788940149	
-0.0266679938858	0.0172022328578	0.00109273941973	0.00965796836588	
-0.0266727205447	0.0172517136901	0.00104395127894	0.00963864645665	
-0.026672713224	0.0172517876687	0.00104314511876	0.00963872745081	
-0.0266752733848	0.0172556279956	0.00104508174228	0.00963161836026	
-0.0266819658195	0.0172526687732	0.00104650602529	0.00963559944833	
-0.02668679358	0.0172537899691	0.00104335415433	0.00964096109532	
-0.026772113389	0.0172907332717	0.00102560110463	0.00969352094526	
-0.0269435319462	0.0173657774864	0.00107223683245	0.0097815389805	
-0.0269874614533	0.0173777322119	0.00108572216885	0.00977026455892	
-0.0270455737797	0.0173756658395	0.00109672295663	0.00980031308688	
-0.0270473168844	0.0173763344315	0.00109754139112	0.00979791217759	
-0.0270498770619	0.0173745365096	0.00110249624397	0.00979850105828	
-0.0271725133559	0.0174999848872	0.00106918401552	0.00979253792067	
-0.0271744919312	0.0174957458244	0.00106767148164	0.00980036507501	
-0.0272079651704	0.0175039812428	0.00106179249071	0.00982730062483	
-0.0272067443005	0.0175087314136	0.00105379743693	0.00983046690171	
-0.0272080938306	0.0175148606781	0.00105942516382	0.00982279940336	
-0.0273430508072	0.0175428258484	0.00101784323499	0.00998552960952	
-0.0273719533551	0.0175545896254	0.00100419387023	0.0100417490872	
-0.0275206295153	0.0177087636248	0.00091820176419	0.0101550373416	
-0.0275182886258	0.0177152744421	0.000911875581303	0.0101537003194	
-0.0275364159328	0.0177764278049	0.000854959145841	0.0101748176632	
-0.0275522590428	0.0177729847241	0.000857596619579	0.0101983406174	
-0.0275528529576	0.0177720335746	0.000859472610962	0.0101985339341	
-0.0275656880315	0.0177864369175	0.000856713643151	0.0101940313101	
-0.0275929826938	0.0178165250371	0.000853474992467	0.010191490721	
-0.0277275301921	0.0178029255036	0.000861616875628	0.0103203426235	
-0.027982048863	0.0178811736687	0.000900157275358	0.0103913698369	
-0.0282487217659	0.0179120237351	0.000958166124097	0.0106175490273	
-0.0282864389572	0.0179131747249	0.000971164185068	0.010643938148	
-0.0283623985158	0.0179533899054	0.00101470232203	0.010661508844	
-0.0283647224418	0.0179534365482	0.00101946064244	0.0106605938568	
-0.0283964683342	0.017950632166	0.00101860618047	0.010685789748	
-0.0284341573512	0.0179705039958	0.0010059447451	0.0107040141169	
-0.028511641329	0.0179917774093	0.00104005860872	0.0107175257286	
-0.0286640505623	0.0180794274682	0.00109894591547	0.0107460263441	
-0.0286639648442	0.0180858307268	0.00109808987931	0.0107390696544	
-0.0287040394491	0.0180592221355	0.0011124079612	0.0107859607855	
-0.0287071379643	0.0180641447606	0.00111212033816	0.0107897046397	
-0.0287074147942	0.0180635876768	0.00111130482179	0.0107920699463	
-0.0287078369222	0.0180630505552	0.00111184816382	0.0107920503121	
-0.0287124159767	0.0180622705442	0.00110139926159	0.0108203026302	
-0.0287222987479	0.0180521352039	0.00109939128482	0.0108356978124	
-0.0287339949121	0.0180372408152	0.00112153427656	0.0108482760826	
-0.0287340600515	0.0180368693013	0.00112162641407	0.0108487402272	
-0.0287509192538	0.0180603656223	0.00110970140783	0.0108492176354	
-0.0287496868672	0.0180602873248	0.00110759906793	0.0108536441585	
-0.0287513901635	0.0180634909898	0.00109744668796	0.0108678875476	
-0.0287874449606	0.0180773351851	0.00110202722845	0.0108787599901	
-0.0290576767414	0.0182217964856	0.00109029714737	0.0110324605643	
-0.0290607531548	0.0182215332942	0.00108700964555	0.0110399161161	
-0.0290704826802	0.0182565423549	0.00103171467119	0.0110721831589	
-0.0290721407233	0.0182573891001	0.00103384008877	0.0110729003709	
-0.0293892829819	0.0183765914117	0.00118173116817	0.0111455963157	
-0.0294228023197	0.0183603084218	0.00120752169138	0.0111477009901	
-0.0296472240313	0.0184098623312	0.00121173633538	0.011298468117	
-0.0297176582469	0.0184311714505	0.00121387140603	0.0113374124679	
-0.0300413716834	0.0184887639807	0.00136016882867	0.0113964453871	
-0.0302818242986	0.0185153597876	0.00150356364295	0.0115181495652	
-0.030362353899	0.0185098794028	0.00158285257393	0.011550750909	
-0.0303667023202	0.0185117063529	0.00157372810565	0.0115613610913	
-0.0304561301341	0.0185754989647	0.00161226826992	0.011557502893	
-0.0304979393903	0.0185799212995	0.00165232569111	0.0115513281014	
-0.0305413752193	0.0186017941916	0.00165875184471	0.0115726369896	
-0.0305425908574	0.0186001595123	0.00166053152999	0.0115739524505	
-0.03060370813	0.0186559368452	0.00170394942293	0.0115652683843	
-0.0306309607486	0.0186635531795	0.00172568636517	0.011577770685	
-0.0306323460549	0.0186648607472	0.00173015075042	0.0115754112569	
-0.0306324742079	0.01866493918	0.00173038815563	0.011574948418	
-0.0308688860151	0.0187731187194	0.00184107245057	0.011632615486	
-0.0309435975254	0.0188468304707	0.00185217103249	0.0116395718348	
-0.0309474177466	0.0188598196199	0.00185420796783	0.0116323926849	
-0.0309725598897	0.018878557616	0.00186535244299	0.0116329765596	
-0.031048023595	0.0189209823514	0.00193060035982	0.011607579266	
-0.0310494768629	0.0189242060225	0.00192629229753	0.0116085365418	
-0.0310526874445	0.0189184355734	0.00192764697046	0.0116182796172	
-0.0310711383736	0.0189337410026	0.00194318958257	0.0115981557486	
-0.0311066905828	0.0189389726225	0.00198545326693	0.0116036781584	
-0.0311074689607	0.0189394070507	0.00198660886253	0.0116022662705	
-0.0312891940213	0.018994270999	0.00208089484651	0.0116214249494	
-0.0312876878847	0.0189990144382	0.00207429261401	0.0116246093826	
-0.0313110571121	0.019027818987	0.00206304976269	0.0116638277392	
-0.0314234024894	0.0190939582719	0.00204676716506	0.0117284308373	
-0.0314218761853	0.0191020570598	0.00203433915265	0.0117324897243	
-0.0314237147224	0.019102518666	0.00203166910651	0.0117342096838	
-0.031428370106	0.0191025062456	0.00204005814896	0.0117313925972	
-0.0314409452613	0.0191307249857	0.00206568262606	0.0116979675315	
-0.0314910729341	0.0191854617162	0.00205332252346	0.0117161742956	
-0.0315151400805	0.0191752260252	0.0020719140028	0.011722897104	
-0.0315198810077	0.0191764163823	0.00208597352487	0.0117225218851	
-0.0315269941006	0.0191840449501	0.00209679863958	0.0117124781938	
-0.0315287387976	0.0191885365497	0.00210250360498	0.0117119498002	
-0.0315323536297	0.0191888386047	0.00211134565036	0.0117103148539	
-0.0315573320843	0.0191868346148	0.00212490123444	0.011721629782	
-0.0315696947581	0.0192077779847	0.00210945691386	0.0117278773327	
-0.0315720461589	0.0192160971715	0.00211500368938	0.0117157812004	
-0.0315729314595	0.0192184667865	0.00211789814877	0.0117107781983	
-0.0319235482035	0.019286476972	0.00230372415047	0.011883790836	
-0.031938379932	0.0192848073606	0.00230212589329	0.0118946183247	
-0.0321190597103	0.0192182016444	0.00238986866578	0.0120543917769	
-0.0321215772029	0.0192234674983	0.00239810082637	0.012047217291	
-0.0321770133899	0.0193122890291	0.00238530668451	0.0120466299417	
-0.0321923329991	0.0193293999508	0.00238649025403	0.012033891935	
-0.0323122143125	0.0193747797675	0.00246833325449	0.0120569611121	
-0.0323882925356	0.0193979220762	0.00248719021249	0.0120395237293	
-0.0324215267146	0.0193969424078	0.00250713874317	0.0120374026853	
-0.0324360596839	0.0194231788241	0.00250999450042	0.0120372638623	
-0.032446062929	0.0194352910608	0.00246174015874	0.0120564609587	
-0.0329563994716	0.0196148374195	0.00250032248786	0.0122400771669	
-0.0330102871669	0.0196615974194	0.00249177135275	0.0122909298173	
-0.0330279257059	0.0196610029646	0.00250837377326	0.0123022308616	
-0.033027923544	0.0196610078053	0.00250838790362	0.0123022261084	
-0.0330479761824	0.0196704702568	0.00251922567929	0.0122905597975	
-0.0332164555643	0.0197654552263	0.00252732826591	0.0123785175685	
-0.0332706597481	0.0197535519559	0.00255266464079	0.0124220910932	
-0.0332967814656	0.0197609662579	0.00252613547311	0.0124469770445	
-0.0333451092708	0.019772673522	0.00251295625315	0.0124545344031	
-0.0333990763528	0.0197994593648	0.00253577561424	0.0124494989685	
-0.0334784314279	0.0198005024416	0.00259213696087	0.0124615778855	
-0.0336201057594	0.0198229559692	0.00257086438482	0.0125948821786	
-0.0337668852344	0.0199346156174	0.0025566327498	0.0126598817628	
-0.033770414474	0.019964625961	0.00251634159646	0.0126905643778	
-0.03380747345	0.0199805603281	0.0024465198096	0.0127733277963	
-0.0338365212582	0.0199716284934	0.00246344600502	0.0127683842616	
-0.0338942889017	0.0199786395088	0.00248216029133	0.0127818988745	
-0.0339392459665	0.0199876146233	0.00249813795479	0.0128085519784	
-0.0340277742113	0.0200460302082	0.00252131093247	0.0128377522527	
-0.0343744555059	0.0202145047136	0.00263328697407	0.0129267538763	
-0.0344076262465	0.0201995895998	0.00264068692488	0.0130050565635	
-0.0344085769005	0.0201995065418	0.00264220310557	0.0130044016377	
-0.0346760870382	0.0202871824846	0.00270355050704	0.0131004106036	
-0.0346762949649	0.0202866092688	0.00270433538776	0.0131007006106	
-0.0346838978992	0.0202774640226	0.00271084544344	0.0131125861458	
-0.034954746684	0.0203139338566	0.002790235257	0.0132464102016	
-0.0349691595341	0.0203063654125	0.00278638449592	0.0132545474036	
-0.0349737132517	0.0203000866642	0.00278677811164	0.0132606294667	
-0.0349974358042	0.0203143694112	0.00278926060302	0.013264377262	
-0.0350827322469	0.0204371296595	0.00278282292578	0.0132540620957	
-0.0352226382319	0.0203623591582	0.0028942370815	0.0133527801601	
-0.0352178402122	0.0203770229916	0.00287828133732	0.0133609326617	
-0.0353003790195	0.0203988163567	0.00293253938181	0.013367105466	
-0.0353620311842	0.020384422349	0.00295962100502	0.0134213344834	
-0.0353683337539	0.0203897144321	0.00296196504288	0.0134160844258	
-0.035371578027	0.0203896168413	0.0029649962873	0.01341430097	
-0.0353718118043	0.0203897426692	0.00296511116265	0.0134136048817	
-0.0353779067989	0.0203850287828	0.00295488626708	0.0134231984267	
-0.0353773581976	0.0203871445057	0.00295554057964	0.0134228372402	
-0.0353880251681	0.0204161663739	0.00295688296351	0.0134276682269	
-0.0353926111284	0.020412990586	0.00296606658906	0.0134246857339	
-0.0353946268885	0.0204136151257	0.00297181778852	0.0134204151592	
-0.0354775707278	0.0204222577632	0.00295818034976	0.0134536599294	
-0.0355169146682	0.020417176874	0.00295281600445	0.0134981588051	
-0.0355629491089	0.0204161300255	0.00297706496847	0.0135142134233	
-0.0355782463651	0.0204112329521	0.00299778547654	0.0135167289543	
-0.0359332342241	0.0206044519464	0.00308394061373	0.0136583356564	
-0.0359387469932	0.0206062452129	0.00306614175485	0.013675429995	
-0.0360674275254	0.0205455845604	0.00316971531	0.013744669499	
-0.0361195426864	0.0205753134722	0.00315676400767	0.0137394467283	
-0.0363993544895	0.02060724158	0.00329857159542	0.0138586197693	
-0.0364121954833	0.0206050479219	0.00331345624158	0.0138494513086	
-0.0364130146193	0.0206045730254	0.00331635257077	0.0138479791569	
-0.036418262725	0.0205986419566	0.00332669753077	0.0138527673197	
-0.0365231770335	0.020663773665	0.00336731426101	0.0138706022326	
-0.0366551595225	0.0207206905676	0.00344426788717	0.0138699586161	
-0.0366919995319	0.020737300717	0.003407301691	0.0139065441093	
-0.0367138854199	0.020742083827	0.00343341409238	0.0138883455218	
-0.0368901849256	0.0208151821324	0.00347232754043	0.0139682411676	
-0.0369753804552	0.0207905250487	0.00356354085652	0.0139867810893	
-0.0370476650624	0.0208510147178	0.00357615063262	0.0139792884071	
-0.0370539285764	0.0208517418404	0.00358296312342	0.0139812776206	
-0.0371142331385	0.0208395880662	0.00364258215195	0.0140149896164	
-0.0373622078843	0.0210144455723	0.00374801048346	0.0141202313329	
-0.0373835886331	0.021027644841	0.00377414908271	0.0140983872154	
-0.0375779850913	0.0211176494056	0.00379641812065	0.0142243391137	
-0.0379040241485	0.0211383446183	0.00390894845813	0.0143830607687	
-0.0379352654906	0.0211922704819	0.00391571676774	0.0143680203037	
-0.0379399438614	0.0212175693189	0.00390961407492	0.0143694739343	
-0.0379479566146	0.0212137589979	0.00390640293878	0.0143807032174	
-0.0379578484399	0.0212069515084	0.00389948614507	0.0144053403753	
-0.038005194208	0.0212250994021	0.00392799322269	0.0144141093829	
-0.0380051385857	0.0212408202102	0.00391132135085	0.0144190009373	
-0.0380383880329	0.0212558401219	0.0039292637674	0.0144036735738	
-0.0380951647854	0.0212679316794	0.00392496696834	0.0144409485478	
-0.0380987604939	0.0212653193388	0.00392408186331	0.0144502514223	
-0.0381122904293	0.0212694768125	0.00393519080957	0.0144314404659	
-0.0381644283353	0.0212742478585	0.00394415099394	0.0144886154474	
-0.0381853494915	0.0212730983807	0.00394674768867	0.0145043502318	
-0.0381932676365	0.0212757275731	0.00393870570885	0.0145148620394	
-0.038302183783	0.0213561110935	0.0040474868255	0.014421544769	
-0.0383075265355	0.0213944240427	0.00404509469418	0.0144137202685	
-0.0390599194278	0.0216884483655	0.00429726117172	0.0145943549894	
-0.0390751141473	0.0217042658767	0.00428709819439	0.0146079790334	
-0.0392179760133	0.0217581419031	0.0043437569497	0.0146802388353	
-0.0392655282001	0.0217282715954	0.0043768179289	0.0147326038502	
-0.0392647491451	0.0217255694221	0.00437097882493	0.014743355547	
-0.0392741835385	0.0217486506232	0.00436932343906	0.0147329109197	
-0.0393339450233	0.0217538535021	0.004379794589	0.0147623116792	
-0.0394379142763	0.0217193130244	0.00446931489927	0.0148203206265	
-0.0394951229723	0.0217822940622	0.00450254396809	0.0148002171435	
-0.0395279967834	0.0218201023484	0.00453602372962	0.0148034929763	
-0.0397401984592	0.0218856995579	0.00464935121884	0.014818228943	
-0.0397413063233	0.0218849713139	0.00464646813176	0.0148189602516	
-0.039843114827	0.0220058676361	0.00461042788054	0.0148841484736	
-0.0398453817973	0.022002603457	0.00461336654949	0.0148909834982	
-0.0398463390968	0.0220051579322	0.00461904817249	0.0148849905572	
-0.0398579382856	0.0220114494549	0.00462051061743	0.0148870245589	
-0.0398933249317	0.0219781201689	0.00467348347761	0.0149380537466	
-0.0400035713669	0.0220015798175	0.00465743842905	0.0150300900868	
-0.0402865185187	0.0220495354145	0.00483590499339	0.0151156357531	
-0.040313413175	0.0220454035689	0.00481561231148	0.0151568334454	
-0.0403679597701	0.0220820416187	0.00484526110278	0.0151271945125	
-0.0407700814254	0.0223209575505	0.00502081008278	0.0151129538885	
-0.040859495234	0.0223896909698	0.00503967148205	0.0150917799051	
-0.0409250323241	0.0224527760131	0.00501217882526	0.0151151456575	
-0.041273549492	0.0225377894869	0.00508799148873	0.0152468352433	
-0.0413755814119	0.0225528814791	0.00515005356084	0.0152470499866	
-0.0413784133736	0.0225475865539	0.00515444375867	0.0152479330951	
-0.0414235231766	0.0226010097494	0.00514152361969	0.015256866954	
-0.0414624467004	0.0226276439359	0.00515683295665	0.0152823725595	
-0.0414666812167	0.0226198735698	0.00515974401451	0.0152882263867	
-0.0414672592513	0.0226492639928	0.00513882817955	0.0152947005353	
-0.0414871011482	0.0226394095406	0.00517265364139	0.0153031434379	
-0.0414878813179	0.0226414302082	0.00517032236593	0.015300485038	
-0.0414872937406	0.0226455640936	0.00516622920861	0.0153020286545	
-0.0415392181276	0.0226555419307	0.00519435990068	0.0153212146907	
-0.0416070115272	0.0226627410601	0.00517658168145	0.0153906261067	
-0.0416576534784	0.0227366367107	0.00518518412194	0.0153806757658	
-0.0416914942748	0.0227411426545	0.00523268197384	0.0153554948221	
-0.041690777799	0.0227413313509	0.00523180831	0.0153580618146	
-0.0417516358256	0.0227395964728	0.00525229719893	0.0153991196064	
-0.0417674513355	0.0227404064829	0.00525032482703	0.0154023837686	
-0.0418116409453	0.0227661361296	0.00529623790645	0.0153835248835	
-0.0418174498834	0.0227681832983	0.00528711445318	0.0153953826646	
-0.0418765807736	0.0227628681563	0.00535607137243	0.0153882426936	
-0.0418953123279	0.0227546790788	0.00537719674503	0.0154089327273	
-0.0419855445702	0.0228244651313	0.00535171541204	0.0154585479426	
-0.0420145529898	0.0228441349232	0.00534396106993	0.0155194921151	
-0.042353991477	0.0229910930353	0.00542565044861	0.0156723994432	
-0.0424358712681	0.0229334857961	0.00548992809855	0.0157403310308	
-0.0424389319608	0.0229402454308	0.0055076085675	0.0157354682065	
-0.042439894348	0.0229383026463	0.00551072423543	0.015736459946	
-0.042458551159	0.0229457686753	0.00552099429366	0.0157403690372	
-0.042902025334	0.0232201595163	0.00564053945505	0.015814766368	
-0.0429136802068	0.0232311681694	0.00563080308241	0.0158502666249	
-0.0434082850512	0.0233480183544	0.00576401979064	0.0159695041027	
-0.0434120942797	0.0233472793145	0.00575923932998	0.0159770988848	
-0.0434659638212	0.023370122056	0.00581884418997	0.0159817440643	
-0.0435040872481	0.0234176560388	0.00584198778141	0.0159387613044	
-0.0436660209343	0.0234458842754	0.00596685618755	0.0159757559515	
-0.0436997168152	0.0234709972827	0.00599690814552	0.0159452156114	
-0.0437009228299	0.0234691973398	0.00599842904849	0.0159449738333	
-0.0437488873572	0.0235276108819	0.006000701395	0.0158862965425	
-0.043753619716	0.0235260047477	0.00600013610787	0.0158859508317	
-0.043794877006	0.0235112190485	0.00604309610412	0.0159015636763	
-0.0438147472764	0.0235020805496	0.00605837855209	0.0159292774571	
-0.0442565726092	0.0235998177609	0.00620231832301	0.0160394391789	
-0.0443362786298	0.0236299955306	0.00625449381985	0.0160505036469	
-0.044421183233	0.0236488401419	0.00630725578203	0.0160546432379	
-0.0444219513963	0.0236501400316	0.00630197924731	0.0160553523591	
-0.0452405943994	0.0239381765298	0.00638273282926	0.0164656151051	
-0.0455069720888	0.0241603238877	0.00630506126946	0.0165870139896	
-0.045557710328	0.0242138080475	0.00631997596922	0.0165849494547	
-0.0455767206163	0.0242248603979	0.00633386021316	0.0165869552729	
-0.0456904534979	0.024255442862	0.00630359943013	0.0166785645171	
-0.0456903899905	0.0242554730401	0.00630317015895	0.0166789240259	
-0.0456913179132	0.0242544098284	0.00630573879844	0.0166773745907	
-0.0456937543448	0.0242630632972	0.00629549150468	0.0166806592351	
-0.0462019543945	0.0244247404943	0.00635631188774	0.0169509274693	
-0.0462185153839	0.0244246441474	0.00637379337499	0.0169457735277	
-0.0462346581932	0.0244319653004	0.00633537046144	0.01696186893	
-0.0462353257027	0.0244305768572	0.00633407782296	0.0169648127732	
-0.0462482658759	0.024417468883	0.00634236780888	0.0169854105961	
-0.0462924261287	0.0243787179021	0.00637623002575	0.0170294494154	
-0.0462924808776	0.024379176655	0.00637765306895	0.0170284999442	
-0.0463278069473	0.0244273992487	0.00638214672334	0.017012930215	
-0.0469659607295	0.024595815627	0.00649476642708	0.017379210498	
-0.0469700658579	0.0246108721203	0.00647550458844	0.0173982721815	
-0.0471528140037	0.0246388854721	0.00653034972355	0.0175189088117	
-0.0472962672819	0.024698569113	0.00658564221577	0.0175753212481	
-0.0472987855925	0.0246975310154	0.00659350357607	0.0175797538503	
-0.0480338005778	0.0248861596443	0.00677766684044	0.0178509867849	
-0.048086254014	0.0248710860597	0.00684337339242	0.017871916298	
-0.0484882945964	0.025071583095	0.00690010733281	0.0179148574167	
-0.0485149933295	0.0251008247916	0.00688569503813	0.0179279249969	
-0.0487064295982	0.0250685958411	0.00690656956895	0.0180879042441	
-0.0490030194927	0.025026222049	0.00687736138362	0.0183924297148	
-0.0491135855964	0.0251249891224	0.006836142197	0.0184313627309	
-0.0491514018887	0.0251190290245	0.00683945271657	0.018462626	
-0.0491932113197	0.0250942360495	0.00688311831949	0.0184753717711	
-0.0492843651445	0.0251462152891	0.0068346788369	0.0185655464233	
-0.0493059264905	0.0251359128378	0.00685486246551	0.0185800937061	
-0.0493173922216	0.0251244214882	0.00685108806342	0.0185891032656	
-0.0499907342436	0.0253136005861	0.00705526761089	0.0188592559616	
-0.0500356747286	0.0253215420085	0.00711382478761	0.0188299447616	
-0.0500878594902	0.0253641197146	0.00710256558971	0.0188742166062	
-0.050120377449	0.0253592835148	0.00713935195344	0.0188882925193	
-0.0501278967342	0.0253649807349	0.00712551965985	0.01890892186	
-0.050145842478	0.0253869295602	0.00714197545665	0.0188957721948	
-0.0505505194776	0.0253608705284	0.00739401922528	0.0190716949003	
-0.0505641825589	0.0253781139685	0.00740208478316	0.0190513101503	
-0.0505695400174	0.0253688506641	0.00741147225303	0.0190534021317	
-0.0505876432144	0.0253549286684	0.00740304470133	0.0190858375919	
-0.0506748007306	0.0253964580606	0.00747011475931	0.0190659078117	
-0.0508479460652	0.0254229294777	0.0073918352013	0.0192468983737	
-0.0509924149969	0.025521808385	0.00735894003943	0.019364518752	
-0.0511186115722	0.0255522151605	0.00737929195215	0.019414873669	
-0.0511321686304	0.0255780191317	0.00736992857013	0.019449005841	
-0.0511459842805	0.025573368968	0.00739070328469	0.0194383586466	
-0.0512353177266	0.0255571155892	0.0073535665336	0.0195529426697	
-0.0513007794392	0.0255693413538	0.00742655611185	0.0195673620883	
-0.0513017861091	0.0255676053187	0.00742591997982	0.0195699236148	
-0.0514728583061	0.0256480112979	0.00756884605268	0.0195998854988	
-0.051488675953	0.0256526769489	0.00755783924924	0.0196234999153	
-0.0516389074852	0.0256895783151	0.00756943363755	0.0196758273591	
-0.0516601408685	0.0257275055946	0.00751123717384	0.0197227010704	
-0.0520366312023	0.0258125319066	0.00767186181812	0.0198684324573	
-0.0520358781696	0.0258129641849	0.00766974686092	0.0198711585004	
-0.0520954252378	0.0258187124403	0.00769108200843	0.0198793577186	
-0.052249286086	0.0258288199949	0.00772357296538	0.0200203027553	
-0.0522486486339	0.0258292008836	0.00772147166875	0.0200238972744	
-0.0526672336523	0.0259566154123	0.00798399519017	0.0200967204029	
-0.0527463149657	0.0259328979929	0.00803176105687	0.0201549731218	
-0.0529296468429	0.0260334739061	0.00800309834223	0.0201819714584	
-0.0529336480398	0.0260253520208	0.00799945710079	0.0201892799114	
-0.0531336106371	0.0259887695309	0.00803529745721	0.0204160591897	
-0.0534733497676	0.026287177381	0.008023180716	0.0205529731428	
-0.0535919123334	0.0262914867402	0.00813654468562	0.0205158742181	
-0.0536023606491	0.0262980016118	0.00815145195201	0.0205043533705	
-0.0536055557151	0.0263323503291	0.00811800320347	0.0205021162266	
-0.0536536205903	0.0263608999358	0.00817158499633	0.0205268443138	
-0.0536778677626	0.0263725075442	0.00816550305309	0.0205206148414	
-0.0536910771083	0.0263611705343	0.00816900758791	0.020533333107	
-0.0537016010404	0.0263646225259	0.00816745276508	0.0205385704195	
-0.0537179623959	0.026394876907	0.00809819344801	0.0205970865198	
-0.0537171061637	0.0263962091254	0.00808963221486	0.0206043036016	
-0.0539149187072	0.0266055151708	0.00822634666474	0.020481377766	
-0.0539923371052	0.0266263213625	0.00827165751348	0.0205093317918	
-0.0539984548491	0.0266381350452	0.00827808006877	0.020495765058	
-0.0540023311155	0.0266821260788	0.0082259146421	0.0205330625089	
-0.0540076123116	0.0266884209222	0.00823544490802	0.0205213364523	
-0.0540082442942	0.0266939196246	0.00823600774878	0.0205188986105	
-0.0540110015314	0.0266899547434	0.00823984138043	0.0205193319422	
-0.0541252702972	0.0267651032966	0.00831447755039	0.0205988375701	
-0.0542157868713	0.0266942219937	0.00837713124942	0.0206553581596	
-0.0542734168083	0.0267118284469	0.00839937526733	0.0206543344179	
-0.0546354631512	0.0267481721466	0.00869354664704	0.0206834827989	
-0.0546888006853	0.0267858495681	0.00872504611332	0.0206738600444	
-0.054707604747	0.0267626850649	0.00875483277217	0.0206816003857	
-0.0547617775904	0.0268167053498	0.00873698034311	0.0207120338767	
-0.0547876465824	0.0267946697699	0.00878722518451	0.0207129979206	
-0.0548485451281	0.0268130621045	0.00881137552617	0.0207015194229	
-0.0548519822785	0.0268245772857	0.00878195776548	0.0207135378286	
-0.0548632218562	0.0268284720427	0.008801062573	0.0207014852342	
-0.055145303498	0.0269207511705	0.00894610014204	0.0207296263323	
-0.0553790170033	0.0270112979468	0.00900341230575	0.0208778715801	
-0.0554613188882	0.0269399657881	0.00907870989224	0.0209249826469	
-0.0554707122113	0.0269468977678	0.00908479881494	0.0209164458934	
-0.0554969527835	0.0269550507869	0.00907007814805	0.0209272864018	
-0.0554970901703	0.0269620498406	0.00906813841857	0.0209217034511	
-0.0555183803768	0.0269562053581	0.00908114135809	0.0209492046255	
-0.0556922235585	0.0270376760396	0.00894768260533	0.0211082493954	
-0.0559645137598	0.0271274983835	0.00919350268847	0.0211427748475	
-0.0561597488548	0.0272321370852	0.00923598318834	0.02116779647	
-0.0561596537598	0.0272510942221	0.00924012874041	0.021149051067	
-0.0561679193906	0.0272549865961	0.00922476649165	0.0211592241352	
-0.0564966317339	0.0274084924865	0.00939780113487	0.021238458107	
-0.0566645214591	0.0273937704982	0.00944660668687	0.0213651125139	
-0.0570626463184	0.027508525057	0.00966677676601	0.0215317989449	
-0.0571862769212	0.0274391136299	0.00974487169869	0.0216270560418	
-0.0574121188163	0.0275605773278	0.00983470360015	0.0216155203382	
-0.0574649649146	0.0275650397462	0.00985766229232	0.0216405795258	
-0.0576055728446	0.0275013074605	0.00984620548469	0.021844562133	
-0.0576322965152	0.0275577553028	0.00985859517532	0.0218081225817	
-0.057655468266	0.0276207685137	0.00980283118025	0.0218710828517	
-0.0576912292562	0.027676294527	0.00979389347872	0.0218331853518	
-0.0577271979262	0.0276923366147	0.00978883793124	0.0218743485394	
-0.057753630865	0.0276830713025	0.00982464450775	0.021835974921	
-0.0578856236531	0.0277395050451	0.00978393806222	0.0219561983752	
-0.0578898322081	0.0277261454729	0.00978795265417	0.0219668631502	
-0.0579126652613	0.0277335955015	0.00980164417867	0.0220000337819	
-0.0579192157381	0.0277287317839	0.00981127261585	0.0219972736623	
-0.0581059695504	0.0277997235907	0.00977718503609	0.0221882665782	
-0.0581186644286	0.0278300510057	0.00978431766672	0.0221639707148	
-0.0582632068925	0.0278583667566	0.00981158322428	0.0222245834806	
-0.0587363496101	0.0282396345505	0.0098214786478	0.0222045143968	
-0.0588188225187	0.0282941854096	0.00985031656436	0.0222142405456	
-0.0588188062456	0.0282951771036	0.00984955382338	0.0222136186411	
-0.0590790245327	0.0283598536515	0.00996234950755	0.0222453591033	
-0.0591408926892	0.0284626987645	0.00992547444533	0.0222091844414	
-0.0592141272487	0.0284557094137	0.00995633795345	0.022236993535	
-0.0592344047199	0.0284584366538	0.00997588617679	0.0222207460508	
-0.05941132033	0.0286040005262	0.0100624456831	0.0221377222214	
-0.0594117531105	0.0286068696697	0.010061523064	0.0221348068581	
-0.0594189878718	0.0286176102083	0.0100484062281	0.0221395761439	
-0.059726532182	0.028763665871	0.010275275585	0.0220518545101	
-0.0597324128663	0.0287660368392	0.0102858418124	0.0220469880173	
-0.0604966026068	0.028824477916	0.0107253466675	0.0223406387742	
-0.0608381747252	0.0288496052317	0.0107940045012	0.022561844901	
-0.0608753529057	0.0288865774019	0.0107871454582	0.0225871720692	
-0.0610935132154	0.0290896753428	0.0109471935724	0.0225437059372	
-0.0611198928132	0.0291660950378	0.0108564728987	0.0225706349696	
-0.0614277236228	0.0293598969412	0.0109165203378	0.0226268813124	
-0.0614409545649	0.0293897480777	0.0108986181915	0.0226282887126	
-0.0614453433996	0.0293971059106	0.0108985165005	0.0226207592248	
-0.0614452041267	0.0293977993279	0.0108998402957	0.0226197475994	
-0.0614471200499	0.0294104947334	0.0108961614884	0.0226159868466	
-0.0614753406699	0.0294421451608	0.010908289171	0.0226290711332	
-0.0617432550242	0.0295872025854	0.0109862116846	0.0227195416484	
-0.0617882293498	0.0296266558975	0.0110327653743	0.0226928230736	
-0.0618020436223	0.0296372727564	0.0110725455411	0.0226724262707	
-0.0618017573693	0.0296346264627	0.0110727630409	0.0226781482901	
-0.062036343625	0.0297107447292	0.0110578232647	0.0228971226049	
-0.0620862469735	0.0297174103092	0.0110905665183	0.0229122924699	
-0.0621591106765	0.0298641039468	0.0110194969911	0.0229520267402	
-0.0624282900858	0.0302403726942	0.0109472010836	0.0229073054989	
-0.062687573852	0.0302413341421	0.0110265709329	0.0230584825841	
-0.0627268939202	0.0302761271996	0.0110862034514	0.0230751106427	
-0.0627271111123	0.030285501378	0.0110839469196	0.023065309657	
-0.0627346755666	0.0303010215204	0.0110644328912	0.0230753266682	
-0.062932089976	0.0302400565904	0.011180706067	0.023130700371	
-0.0630195807707	0.0302353112227	0.0112158486016	0.0231981110037	
-0.0630389748199	0.0302263632362	0.0112200184858	0.023203103763	
-0.0631177155693	0.030250334412	0.011251471541	0.0231794014236	
-0.0631400674118	0.0302342964998	0.0112608063356	0.0232043589809	
-0.0632026538602	0.0302408415692	0.0112669367513	0.0232285519921	
-0.0632208787905	0.0302124702169	0.0112827667835	0.0232564877657	
-0.0632211943138	0.0302133716268	0.0112805332084	0.0232561274138	
-0.0632763723711	0.0302357107299	0.0113163612034	0.0232570454336	
-0.0633805908247	0.0302764651086	0.0112527804845	0.0233535297932	
-0.0635314567136	0.0303777366307	0.0111919974915	0.0235278996011	
-0.0636898973146	0.0305473686957	0.011100377357	0.0236328513779	
-0.0637234192888	0.0305742081064	0.0111189111287	0.0236113054457	
-0.0640454469564	0.0306814206665	0.011172940448	0.023833067424	
-0.064099339706	0.0307485427166	0.0111655284553	0.023852285392	
-0.064102998995	0.0307670156331	0.0111648058404	0.0238561381641	
-0.0644206587883	0.0308674386919	0.0112057770038	0.024028364331	
-0.0647485529127	0.0309563434609	0.0113762238469	0.0240476867178	
-0.0652263811112	0.0311000718582	0.0114090854103	0.0242742176208	
-0.0654836384416	0.031173822276	0.0114901720222	0.0243531188026	
-0.0655608837631	0.0312113032136	0.011526854691	0.024362690795	
-0.0655815400523	0.0312326381608	0.0115360508994	0.0243682490006	
-0.0655852275737	0.0312328412356	0.0115344982303	0.0243706976261	
-0.0656325782056	0.031273326964	0.0115135252912	0.0243883883516	
-0.0656763466397	0.0312685694102	0.0115848879087	0.0243773033558	
-0.0657004659959	0.0312978619206	0.0116043115178	0.024346760812	
-0.0661190800355	0.031342895935	0.0116517454177	0.0245314858185	
-0.0662434833429	0.031428035324	0.0117416726682	0.0245481496828	
-0.0663207952084	0.0315679027576	0.0116133187009	0.0246326542378	
-0.0663246457575	0.0315680357833	0.0116157864385	0.0246382034192	
-0.0663244660789	0.031568738582	0.0116166709164	0.024637688443	
-0.0663297026036	0.0315730049229	0.0116137537287	0.0246418145669	
-0.0663761422844	0.0316501396801	0.011612741279	0.0246382178595	
-0.0664991736197	0.0315991621371	0.0116887646483	0.0247018298096	
-0.0665488806648	0.0315858585003	0.011722184627	0.0246930621757	
-0.0670045986472	0.0318548261233	0.0118131828221	0.0247890894562	
-0.0671093696172	0.0320393312797	0.0116850285733	0.024804239909	
-0.067461556692	0.0321597165709	0.0118972248507	0.0249607075319	
-0.067660795493	0.0322263748232	0.0119576363236	0.025031091	
-0.0676709804492	0.0322559579339	0.0119850735318	0.0250130370598	
-0.0682229550006	0.0322211100859	0.0122723299564	0.0252716836093	
-0.0683232552927	0.0321794747655	0.0123445465507	0.0253194221661	
-0.0683338099203	0.0321589283141	0.0123474282424	0.0253428226416	
-0.0683654971797	0.03217939203	0.0123999415331	0.0252917558305	
-0.0689090077681	0.0323516612341	0.0123299839367	0.0257639306892	
-0.0689100678359	0.0323531088624	0.0123320843131	0.0257587052341	
-0.068914277461	0.0323600784715	0.0123360566468	0.0257545887908	
-0.0695104152454	0.0325048620208	0.0123725743693	0.026217682396	
-0.0697055906446	0.0325378468505	0.0123725954644	0.0264407324335	
-0.0697058296922	0.0325403730829	0.0123666774667	0.0264417350934	
-0.0697067008006	0.0325388212137	0.0123693138533	0.0264403857106	
-0.0697196845969	0.0325716447645	0.0123991639588	0.0264175829227	
-0.0697196514854	0.0325717952895	0.0123990840652	0.0264175274337	
-0.0697693016665	0.0325438478604	0.0124786101847	0.0264409503445	
-0.0698218810497	0.0325361679103	0.0125105327457	0.0264492629328	
-0.0703153946586	0.0327390686572	0.0126640846707	0.0267716359523	
-0.070451854093	0.0326522558591	0.0128429611483	0.0268784123194	
-0.0706964909638	0.0325076929237	0.013073890471	0.0270259863558	
-0.0706976691529	0.032512268494	0.0130704707015	0.027022430487	
-0.0710799403643	0.0326472081637	0.0131140940083	0.0272635523851	
-0.0712085335755	0.0327232199189	0.0131765828146	0.0272604492909	
-0.0712081976358	0.0327227342284	0.0131788103859	0.0272647680153	
-0.0712624063474	0.0327674706629	0.0132064735251	0.0272428503425	
-0.0714668269253	0.0327866276232	0.0133826034532	0.027208422566	
-0.0720020146604	0.0332294588621	0.0135178564495	0.0271230296435	
-0.0720515498237	0.033261346072	0.0135135902903	0.0271663570264	
-0.0720526641029	0.0332654927082	0.0135097568339	0.0271650026798	
-0.0721787518973	0.0334118224097	0.0135367661473	0.0272015048184	
-0.0722793551452	0.0333877188047	0.0135762040798	0.0273166998221	
-0.0723648904492	0.0334849833306	0.0136348354322	0.0272560220219	
-0.0723983996011	0.0335073892824	0.013624879817	0.0272603934581	
-0.0726311267427	0.0335164748386	0.0136520750467	0.0275265754738	
-0.0726616315097	0.0335058116363	0.0136415083119	0.0275893649217	
-0.0726931859601	0.0335297105277	0.0136647067711	0.0275718813859	
-0.0727438454081	0.0335585163432	0.0135783478768	0.0276710516591	
-0.0735949688788	0.0341833589886	0.0134914398874	0.0279317929822	
-0.0735993130845	0.0341937826222	0.0135163669973	0.0279129521446	
-0.0737536650906	0.0342025152085	0.013567250367	0.0279536543214	
-0.0738131763194	0.034285415221	0.013568103118	0.0278953503523	
-0.0740599905448	0.0343401775881	0.0135615120273	0.0279627396866	
-0.0741877445267	0.0343549006834	0.0135849359342	0.0280047958339	
-0.0741882965765	0.0343477046851	0.013581727913	0.0280155637162	
-0.0743157110284	0.0344702987059	0.0136037962636	0.0281242924307	
-0.0743229073117	0.0345149291924	0.0135915031333	0.0281020779761	
-0.0745561056442	0.03446968581	0.0137489524058	0.0282534065429	
-0.07558255119	0.0347509342328	0.0142083042667	0.0284281963004	
-0.075760436433	0.0347762281228	0.0143754077095	0.0284329631342	
-0.0758976796307	0.0348948584609	0.0143477054525	0.0284772023301	
-0.0759257389135	0.0349007421754	0.0143638516258	0.0284814798317	
-0.0759836007057	0.0348824089592	0.0144231563497	0.0284668268359	
-0.0759845841632	0.0348850288975	0.014433992187	0.0284644374421	
-0.076039222955	0.0348652828605	0.014484052504	0.0284586288892	
-0.0763317587824	0.0348557316767	0.0144578996617	0.0287073202725	
-0.0765318903525	0.0348428935166	0.014592162161	0.0287553131667	
-0.0765943720547	0.0348488759889	0.0146547353293	0.0287098920079	
-0.0767155084384	0.0348325435434	0.0147588517558	0.02876323486	
-0.0767291428365	0.0348291643962	0.0148098336325	0.0287331103203	
-0.0767291534896	0.0348294617214	0.014809934983	0.0287326759972	
-0.0771709122127	0.0349707908958	0.0150902665072	0.0287162649722	
-0.0773460502082	0.0351050452363	0.0151953176403	0.0286576116915	
-0.0773565057698	0.0351037373429	0.0152057445898	0.028668103281	
-0.0775545032478	0.0351709311877	0.0151831406982	0.0288114105909	
-0.0779871455042	0.0353038451052	0.0153933477309	0.0288588769457	
-0.0782977307003	0.0354648086161	0.0154187725504	0.0290200200264	
-0.0783227781089	0.035459855657	0.0154420911947	0.0290112733609	
-0.0783870342817	0.0354689773888	0.0155191398377	0.0290605429677	
-0.0785713146799	0.0354799794621	0.0155633555473	0.0291841330864	
-0.0789195075504	0.0356891767671	0.0157389520016	0.0291637121111	
-0.0792256242812	0.0356500018518	0.0158820757067	0.0293296940219	
-0.07938555291	0.0357497417209	0.0158475990875	0.029308595491	
-0.0796044972575	0.0358107391005	0.015816893069	0.0294747918786	
-0.079753579522	0.0358461971961	0.0158618194725	0.029578467345	
-0.0797566353295	0.0358560927975	0.0158809571091	0.0295652106967	
-0.0800693711351	0.0360932748702	0.0161959213208	0.0294548805308	
-0.0800694187933	0.0360931952453	0.0161960480353	0.0294547843624	
-0.0803744486509	0.0360756682237	0.0163062303153	0.0296131386967	
-0.0805228319245	0.0362088006199	0.016428289059	0.0295422733995	
-0.0807634913728	0.0362993436392	0.0165442961982	0.0296033578867	
-0.0807881267098	0.0363703168837	0.0165143823294	0.0295921943536	
-0.0808395188257	0.0364977313366	0.0165080044556	0.0295817285537	
-0.0809135614585	0.0365554314047	0.0164791597238	0.0296561847573	
-0.0810183117297	0.0365803361122	0.016395355332	0.029729511449	
-0.0810559869947	0.0365739203028	0.0164193875065	0.0297269902882	
-0.0810690459698	0.0365367826699	0.0163887061752	0.0298011106292	
-0.0811868635187	0.0366188950035	0.0163503344604	0.0298730819208	
-0.0812039729952	0.036630258619	0.0163521367025	0.0298753771207	
-0.0813538873772	0.0368650308595	0.0163324516845	0.0298076306211	
-0.081409797241	0.0368881925348	0.0163868115347	0.0298007761445	
-0.0818215010895	0.0370912683018	0.0164544693121	0.0300144125377	
-0.0818208991394	0.0370946977377	0.0164493793553	0.0300149492203	
-0.0818200831294	0.0371003486923	0.0164446774489	0.0300141470689	
-0.0818588228196	0.0371252387781	0.0164796119698	0.0299772545043	
-0.0818624080534	0.0371303919338	0.0164669169961	0.0299806322203	
-0.0818625371868	0.037129590217	0.0164669788542	0.0299815713428	
-0.0826205426419	0.0372549372039	0.0166619741668	0.0302892114315	
-0.0826451957905	0.0372121781408	0.0166940776799	0.03031168452	
-0.0828726582107	0.0370207940528	0.0168207367427	0.0305554866971	
-0.0828829223814	0.0370518611908	0.0167969838253	0.030557669003	
-0.0830191585634	0.0370650379297	0.0168770687932	0.0306144941875	
-0.0832238590979	0.037134709158	0.0169616351185	0.0306806538904	
-0.0835678989705	0.0373795612356	0.0170511145358	0.0306831320141	
-0.0837208707558	0.0374091444235	0.017139828715	0.0307835475352	
-0.0837277108604	0.0373913640988	0.0171544942524	0.0307933119067	
-0.0837452492858	0.0374630868323	0.0171123535074	0.0307897912834	
-0.0839898818621	0.0375733745974	0.0173416023729	0.0308135437834	
-0.0841070912507	0.0376077146047	0.0174697804266	0.0307650292703	
-0.0841775685543	0.0376278726239	0.0174748215257	0.0308329740102	
-0.0843952748867	0.0377567061356	0.0174467225981	0.0309843745553	
-0.0846761568571	0.0378067795274	0.0174107204043	0.03119350599	
-0.0846750107235	0.0378101557933	0.0174066666427	0.0311981157351	
-0.0847332211177	0.0377553000003	0.017412956619	0.0312739135273	
-0.0850022835113	0.0378019017625	0.0175043456496	0.0314034714646	
-0.0850166460085	0.0378335444063	0.0174843922445	0.0314237136377	
-0.0851788984787	0.0378453462058	0.0176634969557	0.0313838220596	
-0.085200983138	0.037823022608	0.0176555943205	0.0314179436368	
-0.0853250511418	0.0379019174534	0.0176214794855	0.0315436824813	
-0.0854223113525	0.0380626416363	0.0176896117906	0.0314941951401	
-0.0854674912636	0.0381198772587	0.0176982817233	0.0314606043035	
-0.0855225199849	0.0381455940357	0.0176786401206	0.0315048084085	
-0.0855231291242	0.0381505050252	0.0176761854209	0.03150487724	
-0.0855813070714	0.0381877084499	0.0176572476756	0.0315338056825	
-0.0863759704865	0.0384092830419	0.0183280579517	0.0316538022704	
-0.0864682894135	0.0384796547053	0.0183642790023	0.0316548152566	
-0.0864760571606	0.038479094617	0.0183563001866	0.0316830656217	
-0.0865845481834	0.0385892541658	0.0184409311622	0.0316378226388	
-0.0866140079625	0.0386134555194	0.0184154870354	0.0316590046652	
-0.0867352648751	0.0386004271785	0.0185325415388	0.0316905149823	
-0.0876069294765	0.0388837794477	0.0188392390458	0.0318724851	
-0.0881298751285	0.0388833455194	0.0189040281517	0.0322548969137	
-0.0884671418247	0.038914746618	0.0191542812272	0.0322415237024	
-0.0890270319495	0.0389800313247	0.0194368584007	0.0325365286302	
-0.0894816873407	0.0391480532432	0.0194412219838	0.032922148235	
-0.09001624674	0.0393675763149	0.0193143704641	0.0331066523783	
-0.0901068597402	0.0393900658691	0.0192996041962	0.0331425699675	
-0.0906092610396	0.0396534737763	0.0192479729923	0.0333378950459	
-0.0913200743474	0.0399309499171	0.0197001356878	0.033369693312	
-0.0914763590653	0.0398651724936	0.0197741960449	0.0335310772403	
-0.0915075653359	0.0398436005775	0.019839230191	0.0335192764529	
-0.0915149101944	0.0398438058877	0.0198404090582	0.0335161452548	
-0.0915504018408	0.0399019694967	0.0197883437635	0.0335672662663	
-0.0928822780647	0.0402831680255	0.0202130532913	0.0340087136581	
-0.0929500994102	0.0403466814503	0.0202116017975	0.0340560944911	
-0.0931904332048	0.040385949164	0.0203439231111	0.0341870825323	
-0.0931935877125	0.0403703111863	0.0203461708128	0.0342036575509	
-0.0933984056103	0.0404723185509	0.0204644327663	0.0342695275812	
-0.09367926671	0.0404133137382	0.0205535294722	0.0345577574216	
-0.0936833626394	0.0404100313556	0.0205612618442	0.0345607504229	
-0.0937248485559	0.0404884588371	0.0205134158199	0.0345787866858	
-0.0938744316866	0.0405068989871	0.020644018841	0.0346432534912	
-0.0939574820939	0.0405262064318	0.0205650325167	0.0347629122696	
-0.0939581182039	0.0405330157348	0.0205673777943	0.034754720559	
-0.0939563257115	0.0405823469179	0.0205115913367	0.0347589143624	
-0.094393112059	0.0409008492807	0.0206444980182	0.0347222335985	
-0.0948919086034	0.041223405604	0.0208410822015	0.0347671680256	
-0.0949639998617	0.0411498898928	0.020966034117	0.0348111781539	
-0.0951775658167	0.0412854551316	0.0209755832055	0.0348738953091	
-0.0951817286398	0.0412940765738	0.0209774152253	0.0348577638142	
-0.0951815940357	0.0412946060783	0.0209781966771	0.0348570886239	
-0.0953178409763	0.0413441056204	0.0210026050021	0.0349059198234	
-0.0953300960718	0.0413417929739	0.0209899434659	0.034917124183	
-0.0953301579881	0.0413417978514	0.0209891064615	0.0349180870944	
-0.0953312817484	0.0413416656311	0.0209860599155	0.03491820304	
-0.0956576378134	0.0415186039571	0.0211722090531	0.034963409843	
-0.0956765926666	0.0415189220688	0.021188867382	0.0349416048777	
-0.0956835709738	0.0415250082448	0.0211891642638	0.0349319243959	
-0.0957043657066	0.0415186023925	0.0212009416712	0.0349429466253	
-0.0959713556117	0.041584567621	0.0211636251304	0.0351895928705	
-0.0962797490123	0.0416811389	0.02129074205	0.0353595056354	
-0.0964570199626	0.0416801955374	0.0212751013412	0.0354249328952	
-0.0970618580281	0.0418326435467	0.0216607200262	0.0354890353842	
-0.0971391309017	0.0417988841636	0.0216929601608	0.0356289194565	
-0.0971451532444	0.0417786552766	0.0217124791357	0.035637022848	
-0.0971577415541	0.0417962313099	0.0217166814445	0.0356670716063	
-0.0972447406369	0.0418583092555	0.0217666759636	0.035609910558	
-0.09733495444	0.0418771377718	0.0217938593538	0.0356671150465	
-0.0974617620958	0.0419566273053	0.0217285424425	0.0358236247327	
-0.0979902996947	0.0421469162202	0.0217781078232	0.0360924964185	
-0.0980381218062	0.0421691427789	0.0217174721926	0.0361671290577	
-0.0980486588933	0.0421685934186	0.0217296515369	0.0361631892214	
-0.0986205764604	0.0423102323889	0.0219596324197	0.036461970956	
-0.0986240835638	0.0423092358123	0.0219649560647	0.0364623225898	
-0.0987443538555	0.0424688168231	0.0219466954666	0.0364335735321	
-0.09895545483	0.0426758650664	0.0217253669328	0.0365882366719	
-0.0990623701013	0.0426799635378	0.0217094218685	0.0366988526218	
-0.0991974556432	0.0426897452106	0.0218375323885	0.036755670002	
-0.100491792086	0.0433106920487	0.0225125875659	0.0370091832716	
-0.100596500425	0.0433858125155	0.0225620899162	0.0370590913724	
-0.100595996632	0.0433874671898	0.0225514922822	0.0370696751285	
-0.100594584327	0.0433908370882	0.0225521953805	0.037075662551	
-0.100965771275	0.0434051733359	0.0228038168747	0.0371274004908	
-0.100992390403	0.0433862746653	0.0228296975278	0.0371226483748	
-0.101225645226	0.0434871547638	0.0229731036252	0.037194614728	
-0.101589038542	0.0437935236216	0.0229962808353	0.0374166205807	
-0.101795496722	0.0439479306192	0.0231086249898	0.0374647707162	
-0.101949936079	0.0441383673763	0.0232947826449	0.0373674154848	
-0.102660410172	0.0443440365697	0.0238358609765	0.037379264159	
-0.102680794378	0.0443354924245	0.0238605836733	0.0373778112396	
-0.103309369188	0.0442187103627	0.0240575515043	0.0377250306641	
-0.103348037875	0.0442942420451	0.024025527668	0.0377015174259	
-0.103378845288	0.0442702563851	0.0240073492028	0.0377910458035	
-0.103426235351	0.0443100435703	0.0239829584094	0.0377981826645	
-0.103649340157	0.0443276834834	0.024136027298	0.0377623077185	
-0.10364871676	0.0443332487328	0.0241321306101	0.0377606750089	
-0.103663663554	0.0443226905598	0.0241652357656	0.037745487497	
-0.104345642946	0.0443380267287	0.02415794069	0.0382548606205	
-0.104638468575	0.0443803268148	0.0244210758874	0.0382473499268	
-0.104657914914	0.0443758704435	0.0244791148742	0.0382267985134	
-0.104768857526	0.0443561715062	0.0247072838548	0.0381284347696	
-0.104812477616	0.0443661402672	0.0247201732553	0.0381723283429	
-0.105309087443	0.0447520195207	0.0248560791598	0.038114842869	
-0.105832885163	0.0450198498766	0.0248818389334	0.0381673190741	
-0.105986912573	0.04508566738	0.0248819578016	0.0382094925117	
-0.106004266687	0.045179417316	0.0248297299165	0.038227837794	
-0.106069451311	0.0451533766898	0.0248453708377	0.0383615310131	
-0.106092562215	0.0451784542723	0.0248411422467	0.0384174801685	
-0.106119835555	0.0451250341038	0.0248890340263	0.0384386400125	
-0.106122062773	0.0451430424976	0.0248940879358	0.0384228240357	
-0.106244627519	0.0451900247255	0.0249934998415	0.0384932453081	
-0.106247773479	0.0451772559898	0.0250040884176	0.0384979032124	
-0.106691091554	0.0454820678319	0.0251212094907	0.0385627759296	
-0.106692033782	0.0454853105452	0.0251069803598	0.0385783967171	
-0.10672628425	0.0454919044171	0.0251218868603	0.038569810217	
-0.107579631598	0.0458180938811	0.0254604152976	0.039073580772	
-0.107918408063	0.0458308403085	0.0258638927916	0.0391000208849	
-0.109384599871	0.0464185013488	0.0262755514678	0.0393855971562	
-0.110435066902	0.0466659034414	0.0266542184445	0.0398399675417	
-0.11178263424	0.0473013877565	0.0266444394541	0.0406482719425	
-0.112220091072	0.0474915429486	0.0266995053258	0.0408035485694	
-0.112268953202	0.0475232796418	0.026785765857	0.0407294976645	
-0.112306762181	0.047545514275	0.0267960230853	0.0407022336021	
-0.112321768703	0.0476298812126	0.0267943202718	0.0406684091623	
-0.112326704586	0.0476267330942	0.0268093814625	0.0406574006231	
-0.11323541142	0.0480669681951	0.0272819980907	0.0407480104403	
-0.113615775283	0.0484409711155	0.0270711021532	0.0408846491918	
-0.113936492163	0.0485893867855	0.0271553933315	0.0409881402414	
-0.113953982001	0.0485370192915	0.027194975679	0.0410102050876	
-0.114309924808	0.0488111033408	0.0271307904509	0.0412110728555	
-0.114410898485	0.0487191382282	0.0272252583135	0.0413541501135	
-0.115003197719	0.049015127644	0.0273784197303	0.0413113580968	
-0.115002872633	0.04901571089	0.0273767351649	0.0413127848839	
-0.115019379807	0.0489975149643	0.0273679096655	0.0413586137304	
-0.115025910718	0.0489921247946	0.027380554477	0.0413513142517	
-0.115107567002	0.0491164819094	0.0273998255779	0.041314224687	
-0.115657076824	0.0495682086323	0.0272606139175	0.0415931858144	
-0.115933349501	0.0496353202754	0.0272570516616	0.0419104945588	
-0.116216319317	0.0496107232693	0.0272437568714	0.0421696052724	
-0.116224516429	0.0496137542118	0.0272456221124	0.0421698679472	
-0.116257506972	0.049598268221	0.0272976363974	0.0421750811331	
-0.116474253992	0.0496086465027	0.0273855082859	0.0423546960928	
-0.117917856297	0.0501831416618	0.02823645742	0.0425231591472	
-0.1180815697	0.0501944710328	0.0282120209306	0.0427564782748	
-0.118082373354	0.0501914244687	0.0282096675287	0.0427653830145	
-0.118096727073	0.0502595034413	0.0281905514188	0.0427275610734	
-0.1187180832	0.0504948019778	0.0285859417971	0.042694164094	
-0.118967523853	0.0502646156019	0.0288293787895	0.0428900471343	
-0.119095534254	0.0505321490541	0.0288713260198	0.0428345382244	
-0.119153303866	0.0505528639855	0.0289625533888	0.0428360601654	
-0.120616522462	0.0513097661147	0.0296448031139	0.0427472694977	
-0.120757578035	0.0515047712218	0.0296181119301	0.0427237583609	
-0.120782569813	0.0514956359017	0.0296526228093	0.0427301198527	
-0.120814669778	0.0514911278134	0.0296631865979	0.0427090612143	
-0.120871094575	0.0517003265304	0.0295890463708	0.0426341459939	
-0.120966299679	0.0517263469768	0.02971447348	0.042591015189	
-0.121094081884	0.0517254585794	0.0298234399906	0.0425733104737	
-0.121097480558	0.0517380718719	0.0298380520071	0.0425713628646	
-0.12114783435	0.051785468918	0.0298831786601	0.0425138383813	
-0.121286170598	0.051818152385	0.0300185884005	0.0425073781311	
-0.121331048383	0.0518634429231	0.0301009456316	0.0424127739456	
-0.121531300109	0.0520156941485	0.030250697948	0.0424645810987	
-0.121546800941	0.0520572689108	0.0302716868116	0.042410615365	
-0.121552941793	0.0520574157498	0.0302643402518	0.0424195589537	
-0.121995141438	0.0523092423842	0.0303808046826	0.0423531955258	
-0.122463541504	0.0526389796656	0.0303081158471	0.0425576846858	
-0.122608022818	0.0525509155858	0.0304033860519	0.0426391247906	
-0.122765047642	0.052639723002	0.0306517093442	0.042539295509	
-0.122810410822	0.0525448804606	0.0307331888899	0.0425751045096	
-0.122902433957	0.0525589623791	0.0307539327902	0.0425857099809	
-0.12332205444	0.0526067432418	0.0308382768148	0.042822361315	
-0.123340491596	0.05261001061	0.0308302654408	0.0428677092524	
-0.123438692184	0.0525361924464	0.0308249181099	0.0430289610761	
-0.123670665912	0.0524974756423	0.0309388090436	0.0431460723077	
-0.124417930178	0.0526186635828	0.0313053982867	0.0433129201547	
-0.124446412993	0.0526182802668	0.0313174165989	0.0433663222284	
-0.124555838166	0.0528020873852	0.0312479875524	0.0434736967739	
-0.124583065441	0.0528102438502	0.0313215221284	0.043428684558	
-0.124911507345	0.0531353740875	0.0312300418382	0.0435230925009	
-0.124919036482	0.0531180735564	0.0312510693713	0.0435391777129	
-0.125479078954	0.0538193657131	0.0313323905619	0.043299830674	
-0.12614961392	0.0539615199008	0.0314637155547	0.0436152137203	
-0.126271315362	0.0539784329683	0.0316170268693	0.0435291784467	
-0.127171525479	0.0537463329067	0.0319898497933	0.0441383095621	
-0.127179655045	0.0537750245318	0.0319752480978	0.0441418225256	
-0.128080824824	0.0538903446217	0.0325160653614	0.0443865735254	
-0.12859942298	0.0539102206461	0.0327335455175	0.0447182182841	
-0.131009463075	0.0542644987048	0.0330947063606	0.0460779797699	
-0.132548153965	0.0549354863501	0.0329794261653	0.0469596465497	
-0.132653864061	0.0549212188818	0.0330714926048	0.0469460761948	
-0.132670898819	0.0549335759703	0.0330467184538	0.0469850954778	
-0.13318320728	0.055102954169	0.0334454368344	0.0470043687747	
-0.133187272079	0.0550950943788	0.033469985584	0.0469947767561	
-0.133246078028	0.0550290868057	0.0335281158884	0.0470654335482	
-0.133246996068	0.0550270712351	0.0335217248983	0.0470719955715	
-0.13328427432	0.0550048365594	0.0335651437572	0.0470407440104	
-0.133571282551	0.0550747845594	0.0335968949426	0.0471472026141	
-0.133826195141	0.055154034745	0.0337666304352	0.0472250451906	
-0.13403108561	0.0553669652679	0.0338635713519	0.0472065775251	
-0.134354209179	0.0557124540747	0.0340334656726	0.0470451848716	
-0.13450066075	0.0556606576077	0.0340091639189	0.047102705823	
-0.134510807841	0.0556599897369	0.0340147907096	0.0470894212759	
-0.134632930514	0.0556718625957	0.0339329306356	0.0473004826817	
-0.134715776552	0.0555937426838	0.034089574653	0.0472491151746	
-0.135233293605	0.0557816666966	0.0341523188771	0.0477196464887	
-0.135590894227	0.0559383004083	0.0343508572991	0.0477837948066	
-0.135797968239	0.0561595366805	0.0344658430475	0.0475889411268	
-0.135847130804	0.0561810840511	0.0343944454364	0.0476407303931	
-0.136031660081	0.056281636897	0.034504702973	0.0476080807643	
-0.136163686693	0.0564479925813	0.0344886913337	0.0475625607861	
-0.13617094097	0.0564456832311	0.0344558064196	0.0476103435954	
-0.136241558207	0.0564689889897	0.0345189067381	0.0475792597551	
-0.13624741554	0.0564779772131	0.0344851050566	0.0476116929778	
-0.137079056758	0.0570400619257	0.0346531165443	0.0476646864403	
-0.137108997153	0.0570870443674	0.0346495706688	0.047664088765	
-0.137186549599	0.0570626268221	0.0347812959236	0.0477033556604	
-0.137453513686	0.0570904835485	0.0352123268882	0.0476577636789	
-0.137454995866	0.0571360091171	0.0351899842375	0.0476446160496	
-0.137776314446	0.0574961561313	0.035338095151	0.0473720196122	
-0.137816619434	0.0575652521504	0.0353192165632	0.0473961219679	
-0.138375025637	0.0578404797767	0.0353791759985	0.0474310318519	
-0.138761872124	0.0579768446953	0.0354701696466	0.0476133229409	
-0.139155070406	0.0579577573248	0.0356814382701	0.0476719449986	
-0.139154665128	0.0579602541408	0.0356801167093	0.0476713750474	
-0.140035499681	0.0583607154107	0.0361128509599	0.0477172473576	
-0.140059846512	0.0583198944441	0.0361097970563	0.0477709123005	
-0.140230658243	0.0582529277023	0.0360627752985	0.0480446627865	
-0.140492935352	0.0584040673153	0.0359734687268	0.0481891675764	
-0.14049389927	0.0584106012129	0.0359751788682	0.0481786012641	
-0.140546341391	0.0584389793196	0.0359483190111	0.0482260642618	
-0.140693251098	0.0585242909724	0.0359812571674	0.0483725605911	
-0.14075959702	0.0584921963927	0.0360228327446	0.0484047568149	
-0.140842654745	0.0584011131873	0.0361215726747	0.048459685086	
-0.140851552987	0.0584066346104	0.0361435292121	0.0484436372621	
-0.141324939164	0.05826749464	0.0365450190651	0.0486835843532	
-0.141429209762	0.0582331319072	0.0365414262904	0.0489396145795	
-0.141437820154	0.0582114103256	0.0365295142141	0.0489767987296	
-0.141445843342	0.0582609849336	0.036538608864	0.0489273022255	
-0.141457280877	0.0582307730869	0.0365665586796	0.0489489771041	
-0.14162153375	0.0583022578594	0.0365348440121	0.0490461069691	
-0.141861892549	0.0584287609085	0.0365637125015	0.0491807288768	
-0.14187297045	0.0584231922536	0.0366005366743	0.0491707507951	
-0.141872994047	0.0584234129862	0.0365997688424	0.0491710332153	
-0.141877854207	0.0584078903758	0.0366456353816	0.0491757395296	
-0.142020730703	0.0583379956965	0.0367448587137	0.0493411863546	
-0.142454193921	0.0586716478282	0.0367357749973	0.0495142583578	
-0.142493560411	0.0587315200543	0.0367400712928	0.0494673444908	
-0.14256946446	0.0588992157654	0.0367710575226	0.0493208098212	
-0.142630423507	0.0589740938215	0.0367490196644	0.0493042282627	
-0.142640575295	0.0589759573264	0.0367290956971	0.0493332414547	
-0.142972806757	0.0591619413114	0.0367984049869	0.0494977740709	
-0.144126391988	0.0592625127064	0.0371128694752	0.0505574988742	
-0.144420008144	0.0592449603069	0.0371932061577	0.0507652972032	
-0.144775026469	0.0591638916018	0.037697815339	0.0506593848088	
-0.14515365945	0.0591868439512	0.0379003366961	0.0507107043276	
-0.146167526035	0.0597514169557	0.0384670878153	0.0507217373289	
-0.146167309471	0.0597514782953	0.0384700962333	0.0507202907373	
-0.146520559641	0.0598796007749	0.0384626283233	0.0509949170595	
-0.146529030404	0.0598846180982	0.0384431443879	0.0510104195674	
-0.146580079905	0.0599299180682	0.038405542433	0.0510972339796	
-0.146595000781	0.059938133322	0.0383626141555	0.0511238717624	
-0.146638765884	0.0598847735326	0.0383442320596	0.0512978062301	
-0.146984707161	0.0598380150456	0.0382581314567	0.0517439198078	
-0.146996930748	0.0598875257521	0.0381910056986	0.0517873655558	
-0.147764854637	0.0600051048531	0.0387080723936	0.0521097373204	
-0.14815335248	0.0603691345696	0.0387262132327	0.0519158053473	
-0.14819502731	0.0604954608957	0.0386969578696	0.0518784607404	
-0.148255110835	0.0604437341376	0.038677845304	0.0519843678094	
-0.148668579779	0.0608142134176	0.0385025543641	0.0522969075566	
-0.148669542425	0.0608088701007	0.0385207628794	0.0522930347819	
-0.148672930001	0.0608152303032	0.0385496336097	0.0522679391632	
-0.148741535865	0.0607684184823	0.0385964189533	0.0522667220281	
-0.148780615101	0.0607019531141	0.0386771411404	0.0523209625933	
-0.148837503163	0.060730996169	0.0386318232979	0.0523413890602	
-0.149226935543	0.0610429158496	0.0386947209268	0.0524158077867	
-0.15032293873	0.0611657802297	0.0396450553547	0.0524391648596	
-0.150360056335	0.0611800931006	0.039687824852	0.0523878328018	
-0.150480004479	0.0612491017374	0.0396574897635	0.0525059399194	
-0.150515719659	0.0611740816142	0.0397715175649	0.0525588830928	
-0.150912973293	0.0614490119964	0.0397789539926	0.0525476190679	
-0.150921610646	0.0614879787818	0.0397513558706	0.0525594074783	
-0.150928876707	0.0615005425839	0.0397551825804	0.0525317240212	
-0.151098701312	0.0614743766309	0.0400232890177	0.0523961128199	
-0.151422097507	0.0615471978969	0.040181349325	0.0527416422049	
-0.151817608877	0.0615560737324	0.0405833763329	0.0527420090914	
-0.152180549766	0.061734621758	0.0407489035342	0.0527802252662	
-0.152354512658	0.0618074678486	0.0406570282909	0.0529401981596	
-0.153245701198	0.0621138086234	0.0411642830935	0.0530084708287	
-0.154365013967	0.0623379986995	0.0419291928356	0.0532819865903	
-0.154373004469	0.0623623881734	0.0418996061001	0.0532888653293	
-0.154680545644	0.0624336831951	0.0421877474717	0.0532895431548	
-0.154764462044	0.062371513615	0.0422985083593	0.0533755828311	
-0.155019852191	0.0624769179348	0.0423067938243	0.0534910255798	
-0.155569702901	0.0629009115833	0.0424922553237	0.0535298456155	
-0.155826001747	0.0629436480576	0.0427536934275	0.0535640154837	
-0.155912144924	0.063085967419	0.0428935616416	0.053518579514	
-0.155952786752	0.0631094558652	0.0429848852655	0.0534945498173	
-0.156809237379	0.063431474047	0.0433428678758	0.0536349254871	
-0.156811475048	0.0634245904531	0.0433465383519	0.0536442990577	
-0.157267647701	0.0635765634462	0.043755554513	0.0535381139349	
-0.158243060846	0.0633330647428	0.0441057189435	0.0543580586012	
-0.158358790562	0.0633314206063	0.0441822434698	0.0542981741309	
-0.158360863771	0.0633590344092	0.0441974620837	0.0542595925696	
-0.158671844101	0.0637667108072	0.0439609735967	0.0542580643235	
-0.158743262158	0.0638730798289	0.0439395969523	0.0542777597671	
-0.158769431914	0.0638892780438	0.0439557383231	0.0542321779811	
-0.159358777196	0.0643797702647	0.0439441193966	0.0544877528574	
-0.159543968363	0.064369311809	0.0439896498774	0.0547155441446	
-0.159577162047	0.0643925382135	0.0439458904938	0.0547866236122	
-0.159579418653	0.0643896796978	0.0439483275907	0.0547858894279	
-0.160071764249	0.0648745545176	0.0439897190967	0.0549369596278	
-0.161107968342	0.0655010938064	0.0442529241021	0.0550547998577	
-0.16113216387	0.0655115527758	0.0442614975232	0.0550572016078	
-0.164235163396	0.067219341316	0.0451578769318	0.0558373916034	
-0.164524568746	0.0670302052093	0.0453097361112	0.0561841208014	
-0.164547153561	0.0670150710961	0.045325784276	0.0561735732273	
-0.164665004291	0.0670717015299	0.0453540924369	0.0561222215782	
-0.165367208348	0.0677068816908	0.0455055635883	0.0560777024359	
-0.165367557492	0.0677036602394	0.0455001754863	0.0560862220301	
-0.165677121217	0.0677697263936	0.0456175962954	0.0562576793157	
-0.165726605661	0.0677961453762	0.0456521218188	0.0562905433935	
-0.165743108726	0.0678140311333	0.0456670968516	0.0562817024019	
-0.167027137658	0.0681390029573	0.0463618820848	0.0567141472165	
-0.1670515061	0.0682051282271	0.0463452868056	0.0567087268999	
-0.167058905933	0.0682935436126	0.0463383836657	0.0566760466414	
-0.167252565679	0.0683434531606	0.046172807158	0.0568497079641	
-0.167333878029	0.0682275473809	0.0462875788875	0.0569993048717	
-0.167379562862	0.068217138605	0.0462140516911	0.0571083173516	
-0.167719353985	0.0683406620025	0.0463060535011	0.0572398893246	
-0.167920107475	0.0685959295733	0.0462139827962	0.0572728796629	
-0.167924069369	0.0685982897808	0.0461893792744	0.0572910485816	
-0.168199316888	0.0689002800422	0.0461445526961	0.0572797046195	
-0.168282267326	0.0690156895378	0.0461456154469	0.0572351114452	
-0.16828247825	0.0690148861089	0.0461460762257	0.0572351462741	
-0.168339264877	0.068993458887	0.0462625224149	0.0571786261024	
-0.168771062687	0.0689668740052	0.0465898293001	0.0575022201138	
-0.169100934224	0.0689151936772	0.0470160538154	0.0575221084701	
-0.169127362242	0.0688893907721	0.0470247969155	0.0575209359926	
-0.169180722338	0.0690118398956	0.0471208544393	0.0574849448962	
